{"embedding_model": "qwen3-embedding:4b", "embedding_dim": 2560, "subjects": ["abstract_algebra", "anatomy", "astronomy", "business_ethics", "clinical_knowledge", "college_biology", "college_chemistry", "college_computer_science", "college_mathematics", "college_medicine", "college_physics", "computer_security", "conceptual_physics", "econometrics", "electrical_engineering", "elementary_mathematics", "formal_logic", "global_facts", "high_school_biology", "high_school_chemistry", "high_school_computer_science", "high_school_european_history", "high_school_geography", "high_school_government_and_politics", "high_school_macroeconomics", "high_school_mathematics", "high_school_microeconomics", "high_school_physics", "high_school_psychology", "high_school_statistics", "high_school_us_history", "high_school_world_history", "human_aging", "human_sexuality", "international_law", "jurisprudence", "logical_fallacies", "machine_learning", "management", "marketing", "medical_genetics", "miscellaneous", "moral_disputes", "moral_scenarios", "nutrition", "philosophy", "prehistory", "professional_accounting", "professional_law", "professional_medicine", "professional_psychology", "public_relations", "security_studies", "sociology", "us_foreign_policy", "virology", "world_religions"], "tier_labels": ["SIMPLE", "MEDIUM", "COMPLEX", "REASONING"], "subject_weights": [[0.025897182065690545, 0.04664208989001881, 0.07628859243884051, -0.1381701775925202, -0.2743126811339572, -0.13932775061871439, -0.02275255864782731, 0.13547684213576555, 0.056718533796786874, -0.6414307870524459, -0.04079458721334877, 0.0036113033775764425, 0.14651212900402025, -0.16198006207088328, -0.10119884491435421, 0.4753673380324261, 0.09784546388141611, 0.21550022618767795, -0.17097253973359747, 0.14084188740580253, -0.10716165189565681, -0.09362457506193142, 0.08994208135791132, 0.236060856212083, -0.1109289542151451, -0.4521077991500097, 0.06343659693305158, 0.252082392659194, -0.052712799476227715, -0.02663941940204494, -0.39307944565971276, -0.5245330269573663, 0.27258345437353454, -0.3745504927941523, 0.04497216603768603, -0.09056910591437846, 0.07937803784567028, -0.06340570507162738, 0.15163819452099475, -0.12475698782062977, -0.05433382255913055, 0.2576407709964766, 0.12382043081207178, -0.040167288267497166, 0.6032483419774096, -0.027453717303841746, -0.31661660540681463, -0.4655199008315515, 0.5284085725642222, 0.008451615653362225, 0.3713163795464487, 0.09790014791169327, 0.06748016262180448, 0.044738002728950774, 0.16224100407822667, 0.10161740375979524, 0.03151252868410596], [0.11705735356765828, -0.15775707033621467, 0.20233129448388726, -0.13417280758295558, 0.07883790067407918, -0.4043521883987741, 0.19671091999862236, -0.28855847600793544, -0.15588589340719095, 0.16648688622084903, -0.2086695494908939, -0.1809737738282598, 0.38851062487721444, 0.6592719372654985, -0.13992012373928553, -0.3448185784043114, 0.3252628074980378, 0.42117779158472624, 0.2011733472197222, 0.43100906548189327, 0.11748768329031337, 0.5034794549899265, 0.05288431202579278, 0.19803497048727425, -0.33271141566805357, 0.4949749252782125, 0.5149839500292291, -0.49172671290805087, -0.06893700621099257, -0.5394070770673834, 0.21509188193362774, 0.13089323542583803, -0.24749866624943215, -0.1595963444762966, 0.37947012281994236, 0.18380289013615866, 0.022515828685609116, -0.008629710831805559, 0.04630851187487956, -0.28657300306472355, -0.13919146084274994, -0.6394499015867299, -0.6805457459834171, 0.13258160772138516, -0.4698100371999348, 0.2509684116025665, -0.2774378745142144, -0.0032937454963328006, -0.8990918013076332, 0.3053438694693154, -0.1268850697985504, -0.15299648264392088, -0.44857818995074217, 0.20056524513474286, 0.33814381719652536, 0.4194236401082822, 0.29267060254984134], [0.12216942475384686, 0.17755202403203205, -0.37473983265188904, 0.06131221370318273, -0.24351352358332556, -0.46038410362181287, 0.21661309702881493, -0.09356976846231377, -0.21973336090192352, 0.1657745254996457, -0.0048836968214028085, 0.06866569386689006, -0.05535213418950598, -0.13443843547343687, -0.2556717452571931, -0.3311029298007773, 0.01956960202084861, -0.000283656190493839, -0.046321250860351375, 0.40708172898251066, -0.17900797799547302, -0.08016277729389995, -0.008227333665146976, 0.037155656217949036, -0.16932851225983334, 0.10155222319157309, 0.2958786556472833, -0.18802387068265103, 0.06551312669035414, 0.00993379587336851, 0.13728865966749798, 0.1295699216188896, -0.0804455195464611, 0.3225042444840222, 0.1790342819205421, -0.1775655838224259, -0.10303283960403994, 0.21639408892450182, -0.2759913760869719, -0.26854370626111157, 0.18060736383181833, 0.3478908185723376, -0.26083744745061854, 0.14568439719769674, 0.7443894801120443, 0.31285292570061696, 0.3683393416112586, 0.009369373475721435, -0.4819831011597535, -0.14372618281794278, 0.2560201072553436, 0.03243805568350202, -0.2020566123988524, 0.1445442055095244, -0.051751060751240495, -0.21362272157411247, -0.1713968465236869], [-0.1721886203638462, -0.3504178378837407, 0.03866697578694164, 0.3130930686497811, 0.6243995428143402, -0.3516470572918861, 0.2909196252656937, -0.2970409360006242, 0.15332882200899675, 0.5032689013233581, 0.20977086497801492, 0.47857468970651396, 0.4714127808402061, -0.35404077506251297, -0.3587852665442992, -0.6981341074621201, 0.01530579937256803, -0.07972260110727009, -0.0027559316302331167, -1.0332612462942583, -0.2533867384771424, 0.08234060602492778, 0.2051734433144289, -0.1219219174829495, -0.27546155684623197, 0.7596132744881154, -0.34807875285165735, -0.9358621273131366, -0.30460969435928265, 0.9808435130549894, 0.23932112779002085, -0.7044843042474734, 0.3685996776782799, 0.34327269307432867, 0.10763886238775401, 0.6113491116589436, -0.035911389855533174, 0.013730539323133298, -0.18635968782848214, 0.15730967241187827, -0.5519143250885391, 0.8001466221340245, -1.0233562409413495, 0.09245622853186977, 0.9160867716116213, -0.7859966008808649, 0.7962392848367927, 0.3664946921423963, 0.09836695260816941, -0.674312916026421, 0.45731599315987104, -0.0802920582602445, -0.22291920042454505, -0.4503139351369912, -0.06428256659720138, 0.5059428889152123, -0.2836081431652856], [-0.5717881344541768, 0.0869179031189677, 0.3105222092389385, 0.39251340055991873, 1.4098866259723037, 0.29312488485058236, -0.4181423409183305, 0.9647378657805208, 0.8571995331401937, -1.4963824217660397, -0.24695056921355296, 0.13786600107017158, -0.50069558546156, -0.10688193101378428, 1.6559260754843725, 2.675346599828726, 0.7076310057162728, -1.3977571074848576, -0.07366045193919735, -0.2718188386348679, -0.6440930223196754, -0.8442639896547188, -1.1228775307076606, 0.6478031301822862, 0.5198734808044133, -0.45075054086529803, 0.8007011755183281, 1.1344212041644035, 0.7834624443923597, -0.4409593639999573, 0.011721532849484913, -0.1576347095849508, 0.3031628913886849, -1.6477592192660218, 0.35298384426681684, -1.283110090762656, 0.2630806239050579, -0.7491787434259485, 0.39107985431715503, -0.6916815859448037, -0.6889303162665114, -1.849121473592478, 1.7403517341232317, -0.9240051721818375, -0.2173450228029369, -1.9078671759894053, -2.0095845092032367, -1.9003509468564126, 2.9713964054781226, -1.3099791088145278, 1.3306519607210212, -0.05713597248464517, 1.019125434896572, 0.8813369340734234, 0.5985387866010216, 1.0924081725712362, -0.3525374082136341], [-0.22321838475761413, -0.3295709482071455, -0.028165933224805716, -0.057074448365484975, 0.052280138042756476, -0.8523495622176971, -0.0989906950132529, -0.15966024838167023, 0.40982151761419033, -0.717458552652255, 0.2769403272939864, 0.12071255969838626, -1.4022525077473624, 0.22824190086691917, -0.38250084700362624, 0.044977535449980496, -0.07124192979499322, 0.047887901438755424, -0.1856408531202548, -0.6981618630616372, 0.07857772989448135, 0.3498736888432617, 0.23932651667640686, -0.3753313742004396, -0.7201233391974262, -0.5842815074546107, 0.41870991826834564, 0.9899927534049715, 0.3639651669319809, -0.64775771826802, -0.10534177351111018, -0.5664580232662308, 0.5409168315485686, 0.5757127323553879, 0.43361809704625065, -0.30063309541631844, 0.5123345167460328, 0.18868133985282146, -0.20616396404955734, 0.16157723622910003, 0.9536005236175924, 0.4876484896529759, -0.20257015539544637, 0.15835179482730297, -0.15264059080953649, 0.1832861293914327, -0.050509262328337266, 0.6351900322971811, -1.0961834902596457, 0.47870931748364887, -0.21779282917108203, 0.9481581052165581, -0.8341765232142477, 0.1351430955841617, 0.4027297000494969, 0.7167244588724159, 0.13249357335631506], [-0.022153393760409174, -0.268758035403761, 0.01830832707390982, 0.10132409561563309, -0.716016348420745, -0.13847155617778129, -0.16146442852771806, 0.128879290153906, -0.6687947763513169, -0.12855614392672787, -0.3115556701421799, -0.11816479226113223, 0.5236548740946235, -0.18389431009192664, 0.1404905442332353, -1.1673428063514986, -0.11789269895410144, -0.0735642336002357, 0.829122757632482, -0.11822910736774545, 1.210841734559e-05, 0.585846268433499, -0.02507549454734319, 0.5500478557256511, 0.28051399314086634, 0.8770288112459286, 0.02767521492196551, -0.22090668886274767, -0.7590132866302863, 0.4531840343445302, -0.768715249794954, 0.5686170742058778, 0.20870437528274638, 0.10678430801023306, 0.21994822626439153, -0.11694066762781502, 0.17843532738974746, 0.28070379943368406, -0.07841766241615615, 0.32132320378851753, 0.03989094530472325, -0.1679726241263185, -0.022480717618280438, 0.03643739814467099, -0.2773099848466187, -0.34828557370246915, 0.4476548883055413, 0.04637952758151782, 0.4862936372235224, -0.12806539201215925, 1.4300179805346251, -0.3291550420131275, 0.05602556703230491, -0.6340663821633524, -0.47965526001536196, -0.4473680693007809, 0.05489430353885238], [0.011020848547768764, -0.3072404846057223, -0.03489441693484091, -0.09572430720110985, 0.14279602452509751, -0.19255502059129614, 0.1701328841952901, -0.2610652946382164, -0.09326075948018195, 0.387367894318664, 0.03915823374152569, 0.19057056513145046, 0.4192116470662019, -0.16311864521038938, -0.41624703320589834, 0.2652110567813665, 0.12311027485535238, 0.037874960173117804, -0.21700256688645522, -0.1326165352082981, 0.10633014113593474, -0.041039619454319255, 0.08532626740383546, -0.08374662154986999, -0.6148335322218117, -0.2684586045880467, -0.04842426241562443, -0.15735575305523056, 0.5301251902831065, 0.942607073921414, 0.4062695240092172, -0.3333852024866067, -0.009250096339328936, 0.0056544418384308105, 0.04741866349595415, -0.04759290051925172, 0.13070296269187706, 0.03744207198672969, 0.1913277845517605, 0.3537423919388905, -0.16153598236961378, -1.1145579934822925, 0.32948400178534576, 0.05521099649530935, 0.032948396534854575, 0.11787507048008343, 0.019916257318549527, -0.01464229246650957, 0.10785152819211546, 0.0617405188081409, -0.46461602813278546, -0.3861559824037738, 0.2948200487983483, -0.1999841901182723, -0.2771332363380471, 0.02127483823327827, 0.4719076092777694], [0.22646657048487903, -0.629682243615419, -0.3347421253919464, -2.083891755824601, -1.7338759316253078, 0.23308314062402774, -1.2224280932239833, 0.7303696306862592, -1.1883850682597157, 0.5702006353834068, 0.7299453836931735, -0.6321504777945202, 0.4082550133292818, 0.7750697112125031, -0.48476121918733817, -2.0994429904422005, -0.48521004065509377, -0.025009441600487403, -0.910758417545112, 0.518237449991615, 0.5009485057065266, -1.1192713655240625, -0.16923352262000366, -0.09158863497777309, 0.0387987357576836, 1.421405707634795, 0.37690768046625517, -0.7294211443222335, -1.1171738844033152, 0.16682340383137545, -1.5274051784640057, -0.13110987076078723, -2.0992901770618757, 0.7965345996841171, 0.5502599674334081, -0.5305216956960426, 0.6623467477777959, -1.3127595111848513, 0.35831954282449974, -0.3600100737346168, -0.33732863041298194, -0.10258677257536893, 0.200784064797977, -0.1864160452606962, -1.2645177220096449, 0.5970607712329086, 2.9481396553129375, 0.42297014651428644, 0.2207327730117943, 1.1730209869301147, 3.0410437142416424, -0.04028713581833919, 0.16060655890332512, 2.18020995566059, 0.5224519435434544, 0.7848229240531684, 1.6332390485992385], [-0.10895433950670623, 0.00983020339414007, 0.004021269579511769, -0.2846650253517342, 0.046515301041191476, 0.22929909756195277, 0.008895721001652908, 0.10118755487514274, 0.3100320349743294, -0.14586356500029005, 0.22682866989790346, 0.028173695895436546, 0.24970632662402026, -0.032844772236444775, -0.25467408401014563, 0.25507027345963235, -0.07294879311271377, -0.1452230792266619, -0.04525992305208836, 0.17054962992937295, -0.2114413584502083, -0.07131219812726015, -0.05322003178223487, 0.5230014367040021, 0.1377742153454025, -0.12909648111657654, -0.14234517216935605, -0.459027642866971, 0.27195774101989606, -0.1973657124517598, -0.14685042826729441, 0.11453694809330695, -0.35085433787578774, 0.2865009865809626, -0.018734591936120593, -0.1895117455978647, -0.07087815040312495, -0.2399861877931243, -0.00740196822223326, 0.19671252657367325, -0.010079220299587844, -0.48860356605833616, -0.009331932019788098, 0.0448564546833143, -0.1086227825141408, 0.007356501707005064, -0.08013581992441723, -0.01135825448550539, 0.1157092254346501, 0.2700214031410228, -0.5559824759383566, -0.04110623756849761, 0.015606699420338209, 0.5328303079861895, 0.18923113461427618, 0.01870288491251151, 0.31875988822279044], [0.08588614723180904, -0.16219998056418924, 0.5961115169763951, -0.09522764609981346, -0.2938831615571919, -0.6774826720953753, -0.06707406761551185, -0.4968083186623162, -0.22464547552136244, -0.05821635656036374, -0.016403533762948938, -0.030192607786027878, -0.35170264482287245, 0.10494419502493689, 0.07779953905785432, -0.2147308644437123, 0.09417315114986145, -0.11286518295150237, 0.9281198039395758, -0.32639114312196676, 0.7010206786146692, -0.050367503516189405, 0.02070192765712496, 0.26763682743905887, -0.048907851911967795, 0.09956060343288044, -0.04119490108010782, 0.06874882476400875, 0.1687995720529721, 0.40341370379803665, 0.19855534391408206, -0.2099570006357001, 0.19143923101751323, -0.17084507599004933, 0.43266039603446854, 0.16736277865035137, 0.22189383476291138, 0.08299079139034238, 0.15605945526412646, -0.26054902851498646, 0.19191065324821346, 0.8558318883212558, -0.5820098603090387, 0.15491088930167957, 0.22939475440704366, 0.24568692342367318, -0.11572805242542092, -0.5724873299032404, -0.47457925466325046, 0.10745714563359726, 0.4216924752673148, -0.2001986176051337, 0.056887289379324454, -0.5735801292084404, -0.4608496840390338, -0.09966100298243821, -0.34292527759360275], [-0.38366283828885406, -0.049983695205541, 0.3017095264402136, -0.02144074596553142, -0.48585805183545533, 0.4848892306345041, 0.33994614986257254, -0.21647428073866698, -0.19240947613948464, -0.3767684086971628, 0.04560069235873701, 0.04319053001369851, 0.4202893035653242, 0.13138460954643844, -0.6491247220243133, -0.16391496842533904, 0.07647977119963474, -0.3282626313268578, -0.19252801042519577, 0.26824435030581645, -0.2588885909059786, -0.3005759871992923, 0.09205611716956028, -0.013666038297802545, 0.05965467242489996, 0.5128042148931865, 0.01882512030129282, -0.06184981178422503, 0.22017081081214088, 0.8056311222467997, 0.6160695908159758, -0.4485413803978167, 0.28711065663069923, -0.006897607878051037, 0.099925634786899, 0.13075783605141592, 0.02666678954459419, -0.10294724672479455, -0.06081584310467204, -0.06405155549583261, -0.20083476755121496, 0.04683242006506981, 0.07620448675868463, -0.006896117717307722, 0.12321979203105682, -0.4417808267200851, -0.014969673143667732, 0.09541692424945744, 0.21828669198722334, -0.13914206916970642, 0.08001678061682899, 0.0022136094261778687, 0.06096122662303012, 0.0484928191999985, -0.09678607984940842, 0.09508046292589499, -0.5490559299967248], [-0.6612810101880526, 1.370428480075364, -1.289264298387757, -0.08267171665941819, 0.6576022145170738, 0.7883123720519775, 0.10670465473745894, -0.09010239553391723, 0.9487487327323469, -2.3642558549009354, 0.0830136860861058, 1.111712217085691, 3.7845167208048514, -0.10489750844368789, -2.083772796920624, -2.3916923898773756, -0.2596254151282552, 1.0977082984284083, -2.4639124837363133, 1.7482324002011536, -0.49159482488362166, -0.1127377427968113, -0.9561474872413817, -0.2402303491340913, 0.02435738469990375, 1.6133895297005276, -1.3316690731174041, -0.7395389237910641, 4.355658252417145, 1.2217804338954068, -0.6301614195772918, -6.418476635515073, 1.6529918138730846, -0.5958494001689091, -0.550720401406943, -0.9559688523513556, -0.4891124855476502, 0.5492344825194196, -0.6352199328041014, 3.2027939929685734, -0.9421310865994784, 0.749991346791277, 8.5619357250773, 1.0901579890798838, 0.5488560907507686, -1.801838655212881, 0.7507733140817797, -1.7989839359796436, -0.8824932569839742, -2.1314318656600917, -2.445625528090782, -3.912798283450873, -0.86964672063054, 1.2407112478071547, 0.39034518712270744, 0.28898722791828574, 2.784947564293352], [-0.17624215768949342, 0.3837861929322644, -0.20849203750480205, 0.07982252868833405, 0.5884974455493359, 0.1371309722554559, 0.21127778620656612, 0.27770937002470575, 0.1622218311573979, 0.007069042644618963, -0.0011335987909594446, -0.17085818561939356, -0.18537405872380164, -0.09746462880764571, -0.24685298637515266, 0.18779371558471059, -0.17209805422039895, 0.039132122207753396, -0.16608189107465393, 0.010168882210803802, -0.2738858433200867, -0.20399794987076528, 0.25121970579468805, 0.11906442440620425, 0.24597775314731468, 0.059125446286581965, -0.23691955322465852, 0.23217002873054723, -0.3218360757263924, 0.07856650050340594, -0.22841589069594226, 0.008644462611807594, 0.27793521598985704, 0.09508998739332179, -0.07030934448279517, 0.05451043875673499, 0.005856949826248392, 0.08039180971421275, 0.11966219865909157, -0.18254411909350376, -0.06497578885673684, -0.37011057480862125, 0.17046407714060488, -0.022930844736605005, -0.2845321385770313, 0.0004909383112430263, -0.3249588733957349, -0.1199060696753114, 0.01398943872715402, -0.07415560260589107, -0.6543722592310006, 0.05202670588954778, 0.21208216704103855, -0.007978803618496112, 0.25525882634425223, 0.31176690415596087, 0.13751727857405413], [0.18892726789095204, 0.20797155699889933, -0.1485617306512622, 0.16272590528658995, -0.026256727216733267, 0.02842301991006632, -0.019417532456376264, -0.24185508160562882, -0.1455724029039431, -0.0744019139004952, -0.07410840116192914, -0.14023090706742916, 0.31944847333490334, -0.1035111555525452, 0.08301204090553803, -0.2643257316134825, 0.04829605281561966, 0.010046894083259471, 0.22298402937095357, 0.4205237376352235, 0.22744189833791015, 0.04535777095388576, 0.19085213707787055, -0.08009992521505539, 0.2208191934895076, 0.07336746282101755, -0.3113580855248327, -0.1865448917074681, 0.020107096611341108, 0.06251629256737148, 0.13274282365122636, 0.23462251273966706, -0.11010678974380778, 0.0556295611198563, 0.12767193446655412, -0.16745158811514746, 0.04156715263691856, -0.018170110692941024, 0.0012773238935192663, -0.38000250603743946, -0.23957250136456895, 0.27196683217578616, 0.039822073579800575, -0.09612925403507568, 0.007698420339095537, -0.03013698821504583, 0.22738851491124162, -0.31562270797801495, -0.37390541395728344, -0.05155959473668996, 0.19000815462017515, 0.08985497922030007, 0.019861778932304716, -0.203569195904887, -0.10697072668555557, -0.07789855485968163, 0.014419586951867193], [-0.07189064267541788, 0.017786084394088436, 0.07536630232442917, -0.30985211551073677, -0.7916568468579402, 0.346653443378785, -0.011568356305390552, 0.0839470456548896, -0.11752849487084417, -0.0584644999119928, -0.05390586636033473, 0.11424300014351364, -0.5502515448768506, -0.35811805692370763, 0.2432155288466913, 0.13666256254408093, -0.07843122381558223, 0.2542402486166215, -0.4824104878856282, 0.36972158780561554, -0.1627195306312718, 0.1907239831391454, 0.13970550320730613, -0.07656466858083771, -0.013721734619345512, 0.14930653622724419, 0.21830914587367742, 0.1464612940908796, 0.6602368996012072, 0.011572101836536022, -0.10926584986234499, -0.16149791469043537, -0.23555957733559105, -0.2461711539788269, 0.13153698676328554, -0.08213594246767356, 0.14875944410832084, 0.07635139171070593, 0.0919719155419349, -0.5007731565444132, 0.06718590814535513, 0.7350893154647709, -1.350397577688288, -0.03090208280659099, 0.16448445530958117, 0.9253655888137771, -0.18270623183540433, -0.28365676668629153, 0.2958442218507685, 0.46175685171521713, 0.7562829927244695, 0.23916136748128172, 0.32854010069197226, 0.15270224776621197, -0.3053669030664968, -0.3863433977265328, -0.7213158115539681], [-0.2247236165584559, 0.011544116905636618, -0.15074344304730905, -0.6871663175616564, -0.21719901519915782, 0.21619471654205458, -0.2878538362119805, 0.03603030453649659, 0.013952997011466925, 0.2617929287466328, -0.16816138094963098, -0.2567882864211881, -0.3306201941192659, -0.08723425200291367, -0.020144692997175754, -0.09092620704988444, -0.12934468444569597, -0.2784913396597641, -0.02264963544952576, -0.19098234072219977, 0.22998779065427516, -0.2820656344724988, -0.0894205835321218, -0.43676183975079647, 0.32292682806640205, 0.07912992558949283, 0.5237744790932836, 0.06666256306235037, 0.013588458337983339, -0.15236828781053793, -0.12793957730718955, 0.44979023013976765, -0.3056472637362149, 0.36808600520224405, -0.2039694774449279, -0.08692223794087325, 0.37284472018863074, 0.18311813878029323, 0.12255362013533974, -0.1946095276727516, -0.022835595002662506, 0.5115331639264757, -0.5511246499494061, -0.1541341403051134, 0.31288275596840964, 0.18717188614700075, 0.014074310331726925, 0.3150470331684417, 0.3297333411054856, 0.27213519584439066, 1.1431748737297092, -0.1425964413754935, -0.37096237305045854, -0.10182641737320035, -0.06333199941822071, 0.0771320257419933, -0.005301931773038103], [0.12533340817140273, 0.24486839528537077, -0.1232731573620294, -0.09099175274098759, 0.24954668385942502, -0.4112562283837101, 0.08009294318627816, -0.06969067693130906, -0.3299226707134332, 0.028470552236633615, 0.11745138932546215, -0.09037727202148442, -0.48038476862313023, -0.29733754102447907, -0.13392627777758281, 0.19452369876346376, 0.08974622393599675, -0.22760704706515925, -4.940218566460571e-05, 0.336189072110665, 0.27412180990173474, 0.629308427071159, 0.19889628812253904, 0.7228218814227425, 0.10966243846046829, 0.18778779343763005, 0.14702930867344655, 0.27660741717536513, 0.5649337449276602, 0.42973346548280966, -0.7494056829485867, 0.2979534156844245, -0.09386887701478307, -0.16895073184983578, -0.4610581920799458, -0.1299887096776022, -0.19729957504797402, -0.16901596662266477, 0.20352360235108138, -0.43305690138821956, 0.1527929463204411, -0.809323003565069, 0.12394174135531222, -0.05881836821327293, -0.14345714438873017, 0.3143170222988596, -0.3607916923565309, -0.19751977808265167, -0.29927265685634685, -0.5229444212584171, 0.5886644256178539, -0.19390477928190872, 0.15092316224278965, -0.0822075052157737, 0.3562175483666436, 0.32557404133638146, -0.19535489075695064], [-0.3105325539652722, -0.04119422171262773, -0.05170610158151903, -0.1600894496430902, -0.12741036513260243, -0.42584358991741, -0.0658388975057144, 0.040396817398282325, 0.12156126695153059, -0.26220569681541117, 0.2767504451820278, 0.02596146760714701, 0.22017067816314, 0.23707164904986602, -0.12787544647550209, 0.14061846745200524, -0.02660530728253381, -0.397986228286411, 0.057041670478834954, -0.12285784305164528, -0.0040995545664142445, -0.0987782922542855, 0.2333878097543384, 0.058218378870237245, -0.1186823049556818, 0.01997818906622875, 0.010492872811490271, -0.25596828676573397, 0.1034098101486188, 0.13414595899257767, 0.09015903380395617, 0.06308830186248311, -0.14663008611017433, -0.02706395013986052, 0.004665979724306364, 0.024627712791345912, 0.17257496623135804, -0.05273495117927396, 0.0026795376792131745, 0.2323923118276357, -0.4174562126107267, 0.1667782870159933, 0.18164353263846597, -0.08186795891329784, 0.3737412946195368, 0.21593947968045923, -0.1595518346618679, -0.12918735912042903, -0.15273429525678311, 0.2331160447286621, 0.7999762455313103, -0.12410195597178802, -0.3186264532570092, -0.11405946250841738, 0.044961539668805124, -0.14070151203476033, 0.176812444309258], [-0.050420558765933474, 0.09278483246691718, -0.005887903334850106, 0.30109497335155133, -0.41574606186389523, 0.5525172865867745, -0.4059001461829776, -1.4685888989737887, -0.36443285432303674, -0.4067254292386222, -1.5577485083627107, -0.2157646524323153, 3.224362538603109, -1.399273209315516, 1.7420075040510583, 4.358124832688956, 0.9522685010245926, -0.5423314548196693, 0.385316124467643, -1.6002183494439146, -0.8332587496532345, -1.6326764045970372, 2.1730612387366772, 1.2826061705545342, 1.560409833499562, 0.6300016503535877, -0.45988737282256215, -0.5530499045966374, -4.707729469128556, 1.2701477517687942, -2.485425498694969, -3.991033267310396, -0.10871051605453659, -0.25670993022410415, 0.2681884661904126, -2.5658087638651175, -1.445244312553772, 2.0577634900140076, -0.5667737295142256, 2.1645051571162464, 1.8757957929065594, -4.477497674558727, 4.7226361297760375, -1.6253231824389578, -2.0296046490994826, -2.543408321512178, 1.4232888194363462, -0.2714595713685813, 1.1017391396828624, 1.6172862806996036, 0.00844096010481214, -0.5736745320246803, 1.2436374772517116, 2.2330313377097903, -1.6898513883119912, 1.1475101677231292, 2.861911483075673], [-0.428267275965954, 0.8994274917604718, 0.8794023985943539, -2.4310612332383776, 1.4420230717945883, 0.9449762038736544, 0.20442516068243877, 0.03589202045162732, 0.25117166971949906, -0.849043908342569, 0.3902643022635567, -0.08262565272181008, -2.053766132995386, -1.5248048092327036, 0.5102301194372674, 1.5565180644923564, -0.7816724299261957, 0.11183832621458543, -0.05404712121235982, 1.364673811412036, 0.30187056451379385, 0.7813712179059282, 0.5833726383686229, -0.12435959490739792, 0.4082736198148826, -0.855266270853824, -0.14813449176611665, 1.3863019904794938, 0.24596965369068152, -0.38045418309383483, -1.3533008304912966, -2.297000914888654, -0.7993467158129469, -2.073249682449786, 1.2952648318293911, -1.0677895661625434, 1.056173726521007, 0.49116397563483677, 1.6567735920303357, 0.529860942958559, -0.2601637342876377, 0.676948020047169, 3.506126047043478, -0.9181927855631826, 0.10783733569056937, 1.6383706553783792, -0.6632556268343653, 0.047176123538677936, -0.8459713335746873, -0.7131280210954206, -2.4453724302514086, 0.1489024577403886, -2.580773541247834, 1.5813966515932119, -0.7601797791997275, 0.12424222656217686, 1.332866285123384], [-0.6234157340737929, 0.42529514667214036, 0.0951868921515061, 0.09853012772126714, 0.5240682369092358, -0.06181609973988796, -0.13640533462892787, 0.2028150288531277, -0.05894393477074231, 0.25547105629975275, 0.24056583652332406, 0.5077245568605137, 1.4808735019628378, 0.3504060745805361, -0.04279153816740852, 0.33541726352680706, 0.012375503836877067, -0.2271217074623355, -0.9603856904138096, -0.18912051235237567, 0.20090041896589841, -1.2782860733044876, 0.7380428307068887, 0.47328814981536715, 0.7515184270982014, 0.35012427574126054, -0.3718626537080026, -0.5378408880100992, -0.8998887186623883, -0.49575055747851865, -0.17499754690171834, 1.3756680873934906, 0.573057553369263, 0.18935703395509454, 0.1926017184402907, 0.6141894318402951, -0.3453378672901211, -0.019514869843683037, -0.21878022721175727, -0.5067316354836005, -0.2805423039654801, -0.09329776528475692, 0.07636496885662256, 0.021530100343832983, 0.28912120936324276, -0.042307104806521174, -1.1291830900845616, -0.06419911951625082, -0.4010705861827597, 0.576081050862064, -0.8313051472157069, 0.2344682379348976, -0.34286028455883744, -0.36949152625360754, -0.4953212768367877, 0.20570307405041735, -0.1921173034562578], [-0.009243873729768181, -0.2925868034765891, -0.0257169645894879, -0.11527484857000296, -0.45612326821174215, -0.012463341493330627, -0.1392848164525819, -0.13117540608708728, 0.12806732634176507, 0.1200552785701544, -0.029974908802333073, 0.4131934879760562, 0.5128005981950752, -0.33495897211394454, -0.8049570765356562, -0.21871312205245577, -0.2180147660701499, -0.00971173030459237, -0.32814764381287925, -0.0188779227239955, 0.20777951891856725, -0.09810483420175932, 0.2686803909573465, 0.340744535932585, 0.17705154973696155, -0.20115831722994168, -0.09902002477703374, -0.0939498851380083, -0.2444433121787051, 0.0712953385820396, 0.07998718532267876, 0.14318245581503466, -0.41983701415398333, 0.0698020985507023, -0.13462477129865047, 0.2371953807715488, -0.02101862076467233, -0.0827941236227601, 0.2622726593103806, 0.5933097887947998, -0.28799439629735496, 0.5463511346159715, 0.014726752125580903, 0.04853461369968921, 0.33268857058547496, -0.03729030633642194, -0.018377727093132918, -0.11747216216911179, 0.4224034504892361, 0.11882864882529345, 0.25815591347600103, -0.31621293763659686, -0.08502630580867279, -0.17011687986448995, 0.022877351465645308, 0.24680583957966623, -0.06412244786192374], [0.25952598019703155, -0.03457720736095752, 0.10543926649789274, 0.3465444160179225, -0.09401067026897521, -0.0457227581536602, 0.10439871163135624, 0.5581945966247792, 0.36685086194631583, 0.05389715578639407, -0.21999114570428943, -0.2858875507003113, -0.6137097087453035, -0.07355003012327686, -0.30961262693822655, -0.40364148866730293, 0.11849423583666818, 0.17916744217567518, 0.40318598830175756, 0.30984137848631244, -0.20306996537301145, 0.14577834528351288, 0.4517339961539118, -0.28955494349856953, 0.14092882710676247, -0.10549380377615673, -0.39157889509030186, -0.29978038737720764, -0.4609481605808954, 0.19876645550330002, 0.30460529559737076, -0.39550713317745767, -0.17144948265618726, -0.06837706406894783, -0.1032879658201948, -0.17298775907095384, 0.0434147377035668, 0.368970980391344, 0.003511991364424607, -0.42777941078749715, 0.03793597245243797, -0.3332889903844748, 0.1738663362033084, 0.030342153253428747, -0.26840052762056604, 0.11734044220027139, 0.08815217318072587, 0.3708771427748344, 0.11978229919622622, -0.2729353320529489, 0.27923480032012366, 0.08499601511051674, 0.07383728926382262, 0.09121504225194646, -0.1324429954101116, -0.08152066370968641, 0.32828306969617066], [-0.3483174496375329, -0.04705907209301355, -0.14020645563137127, -0.15495375908259748, -0.08859973025765193, -0.029371008782373743, -0.2818873040414297, 0.15490169922029626, 0.04853560084417284, -0.23286283283504425, -0.02918469938703886, -0.3063750382492643, 0.2861135902746621, 0.08562293092965119, -0.37988437732104646, 0.19030821002629147, -0.15622171662830214, 0.33379018930973386, -0.28847452655272504, 0.1764040317994119, 0.2997012429112726, -0.1740144736978757, -0.001813370502366868, -0.17780199298572044, -0.039577145031279015, -0.3172924144349455, -0.0385539117997412, 0.012843016386957798, 0.3602493182090881, -0.17342843348151077, 0.5274235287083208, 0.04038397834746046, 0.03577033166978239, 0.24693651473225864, 0.02526983445918622, 0.18123689483566388, -0.10882011975825062, -0.28694328013087333, -0.10113369263681221, 0.37822899180624825, 0.005412496193770367, 0.19926353199162247, -0.06866993046550014, 0.03197173590576237, -0.739828479888526, 0.5625026056575095, 0.12434778973521712, -0.16405364295167787, -0.029416013856065907, 0.5121931682095747, -0.3757329589730419, -0.31941077312473426, 0.6100121851857125, 0.226481882473346, 0.04939414269382702, 0.09311658028936741, -0.19848151413204235], [-0.19443787325787032, -0.22068554428429482, -0.04465946417134096, -0.01695479783472429, 0.045983273418321154, 0.23361669015583902, -0.15703692680308712, 0.18357125180828862, -0.05231084312389006, 0.5736993610923199, -0.03889349952969521, 0.3661708365277527, -0.08239946822244897, 0.31371056153632404, 0.13401630490787972, 0.5577212344267394, -0.39278507662909834, -0.05876421217770959, -0.25672370178817494, -0.10925914699052912, 0.26965725669613705, 0.3485146146869811, 0.5363721354305511, 0.28494446147722335, -0.05904457548388056, -0.24651580340031407, 0.09290675610998242, 0.00438013786351409, 0.42691494281594977, -0.12463194421041326, -0.29668356164058984, 0.46896732138658614, -0.42565859976134707, -0.1080462088508967, 0.32028823883705765, 0.1822520130647599, -0.5412977362065226, 0.06794852930181648, -0.30404132948167295, 0.199033347622018, -0.048378904180614635, 0.5201912128587094, -0.5042685263887016, 0.16200226638323453, -0.9896589796058272, -0.128328936343022, -0.0680506756854221, 0.11142072762489856, -0.4203154554504489, 0.26390334210716465, -0.10659666072906984, -0.14929523713871548, -0.43584000761452263, -0.17280617485392336, 0.20453042129204901, -0.11996835027659195, 0.0016262230219218428], [-0.8880031923448528, 0.0355547027729625, 0.0255646717531477, -1.705010044972819, -1.1068420481707357, -0.2187943486015747, -1.4989238202001698, -0.21706228066358924, -0.5007307229137918, 1.0786418089383796, -1.0320616595951857, 1.15757470057039, -1.4430743547479776, 0.7577747742993843, 0.6072977503778215, 1.8890175670878346, -0.5135264212870823, 0.05096439676000874, 0.9586533227003188, -0.1282252600824594, -1.8022902748632323, -0.34418797600742185, -0.8500173497189543, 2.46388803786089, 1.44949482995522, 1.9321947005075253, -1.8758886466903428, 0.36222193348292514, -1.0426608017297432, -1.5484700591611835, -2.220184908823527, 1.0951963877044009, 0.23563731948176184, 0.6324521923102538, 0.1358190903149091, -0.6609013687677099, -0.11617059216814823, 0.3603144272437415, 0.6376489338710826, -1.1891756441206072, -0.9175301588908396, -0.14493643790727584, 0.7719007730646269, -1.0547623396478822, 1.1399519744560525, 0.2728924030712003, 2.453761490864573, -1.0470952403968221, -0.612197475933246, -0.4594383191287715, 0.942603528292683, 0.6107237284023881, 0.3250488500152318, 1.479078886961474, 1.6906097812664185, -0.7257245482490303, 0.3112570877757101], [0.07642051966616668, -0.07226916154847082, -0.0912865430658621, 0.11652996176146768, 0.26861995619136436, -0.27626465725212285, 0.13266359430768307, -0.00456450669764245, -0.032336284291649094, -0.37283171312609664, -0.11134302658284287, 0.05102755875021414, 0.0664551340216793, -0.127509200309458, 0.06836789571471225, -0.17616106384371885, -0.18025810181816435, -0.04179286582800874, 0.5676284215687152, -0.29120359229118337, 0.048125377626996306, 0.3612564549500701, -0.03581780662124809, -0.09989405167449258, -0.3150725707363142, 0.24676115481193733, 0.12543500873451904, -0.2553886129949409, -0.01839840194438579, -0.04030782602675118, 0.06708487206666704, -0.12534122766479366, -0.11188532884600196, 0.26330173307626614, -0.045420852678137086, 0.02569324720124023, 0.021540958885383554, -0.012708847668058892, -0.020920811430917077, 0.3223544874857899, 0.17658285523005685, -0.14114775031716717, 0.6235982757955496, -0.0526097841662896, 0.2816642435839407, -0.4797543560477538, -0.09396651797039277, -0.016474542833213347, 0.1989561016404544, -0.02972154025610591, -0.44600554834567224, -0.3118103538350867, 0.1945259490800473, 0.03986334354199063, 0.09690745970754913, -0.060928024973272446, 0.04999103094554983], [0.09246001916020916, 0.2877406963095067, -0.8318583105907646, 0.13945166977343534, 0.9305779468907879, -0.32680916968326934, 0.1712635515210937, -0.42784567654024774, 0.10084385129865923, 0.6944708617903372, -0.015237855572028308, 0.33049606804766873, 1.1261353227319137, -0.611124622452304, 0.3430484130561973, 0.1685805206750036, 0.3696777347639791, -0.11683001132201516, -0.46076153451654417, -0.055382387166646105, 0.47916444916122325, 0.8050555162931181, 0.2672813233960276, 0.09343305481204911, -0.015684675757172088, -0.03119954939415117, 0.3645436352266842, -0.586135100044867, 0.8688710211958873, -0.5641479821354147, -0.5821979873707126, -0.5614308068122635, -0.22449309908620246, 0.1148287171199119, 0.22893808076801989, 0.6235456632559229, -0.409587438765977, -0.6976120812548624, 0.061006613520037736, -0.849699135923671, 0.0405758837873112, 0.15129579916541255, 0.5346710729656977, -0.23278120895285262, -0.46405346799031566, 0.32728483445065437, -0.6803914638941657, 0.3867575828391862, -0.7686242045320869, 0.43350600819510743, 0.34163444199663234, -0.21819290058118004, -0.32914231344589034, 0.028560761039294495, -0.2697566419403521, -0.24488896970755414, -0.32986316882670086], [0.06679590496630351, 0.029608951783377694, -0.2562382778266663, -0.3284861761884932, 0.3237909926978442, 0.13508976639298917, -0.04120566456054846, 0.2830858161331432, 0.11371070892581302, 0.17906286187297213, -0.16457709312049343, 0.007185001527541348, 0.22791671332943605, -0.2276863691037345, -0.22138380310324396, -0.058121358792267104, 0.04094192634388517, 0.25167729386038795, -0.7976193138659803, 0.26747795142974307, 0.018798593953123305, -0.44970232283188505, 0.1729588888669498, 0.11139098234568862, 0.04081007850626303, -0.28752186622495174, 0.25425062255685266, 0.254455162754796, -0.2638202050795931, 0.1264169218641288, 0.011951447183904855, 0.21253056288759212, -0.13403777879180273, -0.29958405603788, 0.12801243036152665, 0.1774557945318986, -0.19613723682462345, -0.03650697399395751, 0.00723487833901483, 0.1772802814476839, 0.32514169321737807, -0.29192230263569613, 0.6467213393428559, -0.21742752819330555, -0.05908020367530606, -0.0026128458651338716, -0.2564153461439053, 0.07881522041037015, 0.037391587616598145, 0.20529664146001061, -0.1170860086285177, 0.019964071573577588, -0.06982997744591436, 0.1806851984855008, -0.23685997463130623, -0.01856792329108897, -0.08148019215433785], [0.3374696002730553, -0.07456622402867343, -0.011101934213696025, -0.08118741651621958, -0.1410539827398943, 0.0032046472454414776, -0.10366691264611354, 0.2962486355691423, -0.17893617456531713, -0.06621124343085574, 0.3144173290185939, -0.11024446509178311, -0.44694365678697723, 0.0960535721415531, -0.17918041220182446, 0.23183091778662848, 0.14991989027201774, -0.3620422726516968, 0.42071009454420144, 0.08817878856597694, -0.08102978793112472, -0.4049391261977765, 0.9361750396728415, 0.5039549393115271, -0.11828275021065134, -0.11593064739203282, -0.16079756108646664, 0.00815957093788784, 0.49541612125220386, -0.2526274123108074, -0.2352938815261964, 0.5025907011243959, -0.20963773002051164, -0.02979452201029115, 0.1908791634900895, -0.25528299407696503, 0.24450368754287963, -0.11519644564745996, 0.4072056168894409, 0.21021811506144072, -0.26235781804388214, -0.3138751912109644, 0.2637768380097162, -0.2062238724570119, 0.093032492768061, 0.3381602615127861, -0.02598498270290369, 0.3208529239006968, -0.3904880067515202, 0.21864610032949808, -0.7511444323127964, -0.11556823526357016, -0.18770480595583822, -0.31942584266682644, -0.22003269289120175, -0.10888574210753477, -0.03594933610788798], [0.14236788079265558, 0.20531903502245072, -0.21870417286994898, -0.016017524343943188, -0.5877049903775061, -0.024783157259737235, -0.6926556904421135, 0.9381593725227186, 0.1892077687863194, 0.27315072577840305, 0.05311370744837178, -0.16242334429919977, -1.1769112631384133, 0.16464080565967817, -0.08198948836008743, -0.22922182067510113, 0.10510020058404652, -0.15387442745266253, -0.2057970086190504, 0.981391863656406, -0.29208449210758436, -0.9074445488443209, 0.20363214585320896, 0.06687306732233284, 0.3024245339463324, -0.48232801083113125, -1.3277946202334763, 0.08539326208571413, 1.7992330101205418, -0.06692881573910951, -0.2498025477894532, 0.36422457561985827, 0.49370976581906656, -0.2920742567903591, 0.019123595497524723, -0.6628546361100967, -0.5369543849115868, -0.08599492868198613, -0.11904444370956284, 0.8789475810990269, -0.5109339269607177, 1.6626198671723251, 0.8298197896370465, -0.18416264939821522, -1.1811956421446077, 0.5806586886249556, 0.8497574015018853, -0.835148927478946, 0.002680848929228962, 1.0634844736447944, -1.1247159282199328, -0.05254535778911932, -0.22932598817142943, 0.6166080407546648, -0.16455598951011466, -0.19943883445176555, 0.18384655071005218], [-0.12965193943878575, 0.03265424079861449, 0.09901036584460494, 0.192224520308489, 0.05830534511320718, -0.14686754794701373, -0.049725574055315365, -0.027212651527750622, 0.37514841952963934, -0.017911014487931483, -0.07783624442618943, -0.10324478356449453, 0.2653211141696855, -0.18992167012752706, 0.06659739353330393, 0.18854470694646508, 0.09297915465302317, 0.09166498276517622, -0.16979658410631407, 0.1821068428669395, -0.074936632914441, -0.2653506461438139, 0.3802165201710013, 0.15663181413920027, 0.06654627815727879, -0.03451991699078258, -0.04306180665499545, -0.2100772634579993, -0.31452280123323456, -0.2590828730132637, 0.33921918967557363, -0.04380154535189805, 0.5507823194931691, -0.13516986617952573, -0.05583489420418951, 0.18779166514817217, -0.006061606995219553, -0.059627274281544775, -0.15649147365164406, 0.22143836828644797, 0.022719802837452868, -0.40280376319210925, 0.22418700701552652, 0.0408401072821617, 0.12499525650111146, -0.3487337237928461, -0.34940456865248865, 0.04253317416874219, -0.1996564711184293, 0.14742676642389307, -0.4258124589565063, 0.1637100625723081, -0.4009616976317267, 0.03698257772360387, 0.031390062393384884, 0.028287037942073028, 0.28782744180104586], [0.5601782563649872, -0.03568430360571327, -0.4165624983420932, 0.04202888464829398, 0.7770538124693097, 0.30408578373397144, 0.299970707847105, 0.04980109061720483, -0.2059210292781281, 0.42906778205643636, -0.3167887947516737, -0.1829165212853434, -0.5776874476961028, -0.12315566070950236, 0.20903895486992785, 0.5449946369420055, -0.17794547156343926, 0.34485276383677077, -0.29869293759334364, 0.05532962458056622, 0.1832758125336419, -0.07272776067934447, -0.31327045500933787, 0.012052722900750417, 0.4766413049117905, -0.4784878768363028, -0.6088175264550405, 0.16619723826802246, 1.2578664539768758, -0.21376803593762345, 0.10309669489502253, -0.5557331266673478, -0.281133236895035, -0.08612592175213708, 0.0564057009597377, 0.3341781086562062, -0.018003996456862573, 0.12901206959627845, -0.13803080797612227, 0.5351747014324573, -0.06519639230892987, -0.17721585093010686, -0.27455501729886567, 0.04229343456386498, 0.05745154693626681, 0.23324518794825386, -0.08574617246509661, -0.1949748816309953, 0.11629922857416762, 0.1165043067774929, -1.5100941329018083, -0.22755822005682014, 0.15660494907956887, 0.3198704480574609, -0.14041090125611896, -0.2690015852559909, 0.13365846028419043], [0.5206301627318721, 1.456790469734032, -0.16794351902144142, 0.07317130068539596, 2.966290379886031, -0.46172092948942794, 0.6675475672650344, 0.42298167465827435, 0.8759783418072072, 0.25875687196049857, -0.1385501130998055, -0.18921765593959214, -0.49175756189285935, -0.4040951576175764, -0.4428900583271641, 1.3490087766834706, 0.24437946690945211, -0.8381316408483627, -1.6056590290284656, -1.1134863602177074, -1.701374984401928, -0.8345179666463859, 0.6329171550036415, -1.5194472659966438, 2.056652789625378, -3.814067269772545, -1.027929429462969, 0.30767602009622996, 0.015306154927325875, 0.5180576412560424, 0.32989188597083574, -2.50696266803183, -0.1932138617117105, -1.2308786832920446, -1.0711994354459276, -0.02339321788059393, 0.31063807395972576, 1.4753989593735475, 0.09805319045885734, 0.8763767428415594, -0.5547408973052865, -0.3056554581357833, 3.5254022216731777, -0.5825188467927601, -2.398289987622207, -1.0627637030009558, 1.4654513152770283, 0.22718806568050343, 1.3136374975796175, 0.8316843281989758, 0.19768817101645825, 1.541777806435715, 0.6073351680589656, -1.9130268753256756, 2.3730369297225984, -0.8345015400799309, -0.1118349084995383], [0.17506788167717113, -0.13048478008392478, -0.3259485512316201, 0.3402112498176418, -0.10685332780820425, -0.0016403770701816777, 0.27398610280433067, -0.2771144417550872, -0.23175384012298547, 0.6031215932329881, 0.5561952934884791, 0.2385784347010186, -0.29724034309881153, -0.6680325354973724, 0.2352363061458845, -0.9676720892684827, 0.5364242380296603, 0.6941156078736673, -0.07055590876923146, -0.19947157325939685, -0.45817266374902316, -0.15380920486215396, 0.7325625339857924, -0.6838489777609592, -0.1978223691732144, 0.18181227227053487, 0.24904473892868834, -0.15718230331836433, -0.5825175540891393, 1.177521988999976, 0.8265726460885366, -0.29903967031464274, 0.6343677101231109, 0.33839980439847633, 0.3767217333609428, -0.11217461834012406, -0.41329927546926254, 0.6556903773944921, 0.26360943114917634, -0.5715343436230902, -0.05561343682247264, -0.8226455731175395, -0.9258026157931483, -0.1353598476597213, -0.7886178744169124, -0.22135957891050928, 0.18825468156525774, 0.6294237893478418, 0.18558406334342575, -0.9850192710933436, 0.22056886839648612, 0.34347727216199825, 0.7554587151454528, -0.2516062155222612, -0.0976786902201656, -0.3530557840466648, 0.13090554247234978], [0.37256260629574794, -0.7419637259313999, 0.40466058634205404, 0.40673481092597363, 0.8241974987156488, -0.14789219796480232, -0.1370326965383564, 0.19615564789184226, -0.3220162700406022, 0.3744621425986464, 0.9098892432894851, -0.4150341877148376, -0.04692586663378606, -0.15364234339061014, 0.03199442533372455, 0.4917821745899574, -0.1628525479859307, -0.42274395872461873, 0.26903559996787585, 0.7959099285553974, -0.2304811365563006, -0.27991294258442084, 0.7284844470778282, -0.35329956962770653, -0.5580790674526513, -0.13609248208118302, 0.17183846664535388, -1.1547297229939, -0.5060203554353482, 0.1107734569431516, 0.051489860622495956, 0.48363501822180116, 0.43832025932257346, 0.4949151386214143, -0.07885309737799147, 0.33868715941557986, 0.2198084189734471, -0.5437063793552234, -0.5225682197620634, 0.32729895961753996, -0.3045891915526119, -0.8537500496821894, -0.6554692469159444, -0.031798396303464274, -0.2193622060536933, 0.5229885363662433, -0.7842161309850031, 0.12932282587423843, -0.12165968623790747, -0.017852839460249573, -0.5636452102484526, 0.3643018889307112, -0.04144128502210649, 0.8225416418271463, 0.26027565854807455, -0.055142938312886115, 0.020705127617963327], [-0.541033607877758, -0.6332252375463225, -0.2875647868078417, 0.15933163026420258, 0.2648074973341586, -0.8930057897526247, 1.060146980807125, 0.1661631663437106, 0.09753910431615397, 1.5847576653978968, -0.21405203643932647, 1.250299094936028, 0.10513086787985824, 1.135179418227701, -1.1357265868092457, -3.233623212000704, -0.06893819607438635, -0.47207855963300305, 2.128903405799615, -0.8902624449968152, 0.8688352596019439, -1.1714446300025796, -1.0838060882531981, -0.07107037666409091, 0.3604893956633132, 1.4315125454764916, -0.6103918794256851, -0.8465277369388207, 1.3432128946589081, 1.0452567859352093, -0.5677088503679275, 2.204658512415765, -0.9723950699376628, -0.38777478107851315, 0.22956276145057436, 0.31474092070641474, 0.06939920187735353, -0.822132917027391, 0.9719520397007131, 0.2267198795276852, -0.4631914859195473, -0.4019356239232804, 1.9219436518299795, 0.14207634925136306, 2.1135365365168632, -0.01587740472473783, -1.1543151654936346, 1.2769309995891167, -2.971798459890372, -0.2568049534834096, -0.909778738150811, -0.08723051442051734, -3.0115919499801707, 1.8413066686531983, -0.4645315796696177, 0.4940874056467202, -0.16865858475077744], [0.1877353628420198, 0.18452531360758817, 0.10788982243481077, -0.019452644299030104, -0.15323375192558836, 0.11583587744532726, 0.22556749932202752, -0.2862894856053427, 0.0901781699316513, 0.5593569676201497, 0.06622732046784947, 0.03173507492826643, 0.01654740061362285, -0.1898078114877064, -0.22380947080233202, 0.16785463181058427, 0.0729053021026514, 0.032141380527804006, -0.16584678104842343, -0.3620231272007991, 0.3989504393154128, 0.05317305995846944, -0.1857553526231874, 0.27227828432826984, 0.06994012315460223, -0.07130178919204594, 0.313659219615559, -0.1617227082788589, -0.20378391917734823, -0.2339623664333401, -0.24153113413371918, 0.1507389762521664, -0.2452573469435873, -0.20144456646377534, 0.13072201871638867, 0.01846238907649619, -0.22247110547814378, -0.12476785883343751, 0.098922021310366, 0.24690410342525732, -0.3330473068954348, -0.42645254453874964, -0.05479025486031, 0.05884210146634142, -0.14762010577672835, 0.29223861769638687, -0.31228194460796316, 0.15720844541892565, -0.041904410312477186, 0.16132303888144534, -0.17565292345439965, 0.1323496153519883, 0.2555999092020574, -0.12027028529031689, -0.20491561083657864, -0.0749357882677998, 0.5145198856729688], [-0.4431331897916536, 0.40078835114063127, 0.020222604002388136, -0.030320213792408447, -0.0896188029330129, 0.17184519565677495, -0.03258960816663224, 0.10144756512261582, -0.11468002713880246, 0.05347203353959515, 0.2710117197377533, 0.26589963205951783, 0.312064123750447, 0.4789274705104923, 0.0029230649682553084, 0.06780638283014384, 0.0888392331530264, 0.04439533891941636, -0.11058749800821364, -0.3548641459324509, -0.17519128809165133, -0.02340063985070361, 0.22048587272649864, -0.1310523053947289, 0.1041114291773326, 0.1519675781328097, -0.43985239952336, -0.22278325447307923, 0.48736696761451515, 0.07011918173563339, -0.25388549609482347, 0.40639314758487416, -0.3373246740407242, -0.08853821355647112, 0.013348842311465261, -0.008250279708920156, -0.25968680909190667, -0.2599449825588717, 0.07469129741860124, 0.5049532754333333, 0.0764554016232347, -0.9163563383023376, -0.3577163068195933, -0.06799558400082807, 0.22932121066765296, 0.2951117102927958, 0.08190870778403893, 0.08161335243756558, 0.0452897118735976, -0.11486089531348685, -0.3307798491238071, -0.15615990634984508, 0.010353783841407668, 0.42321679404989226, -0.043787214965857905, -0.04543297106300287, -0.14754128285654453], [-0.060028459198523385, 0.22141278525343652, -0.3496515811495057, -0.042093127381277226, 0.13334634440115892, -0.16562561462330327, 0.42677203056141605, 0.12858528749621337, -0.09343124790202907, -0.04191944856917177, 0.14653747864920488, -0.12259161809229717, 0.3418014848813644, 0.02046538784414364, -0.15513220026068156, -0.4008741320696141, 0.11326984868799382, -0.5023268954681926, -0.10926555997754892, 0.4359103668199963, 0.17256166624130406, 0.1618336890800376, -0.22449569474158051, -0.34176896669969553, 0.17061338276107993, -0.273157566668531, 0.1371168436592837, -0.14573291821057213, 1.032178362010438, 0.39763782382704005, 0.3255265140553159, -0.987193006634862, -0.1155967925173031, 0.4578249046914391, 0.018407246659589465, -0.6349376711835806, -0.4255334847010655, -0.12164466776370379, -0.029509107839717146, -0.08999117227964998, 0.15782103545516352, -1.2306835861559868, 1.4249851075594344, 0.030243232140292682, -1.0745045176895691, 0.057434512924619346, 0.3556041614433386, 0.4000417443790223, -0.20311068320856582, 0.426868616427583, 0.001761278135218935, -0.4427731031805709, -0.006465835040732278, 0.5082999366839114, 0.21865968045211678, -0.7180209766916928, 0.6844437675938789], [0.10726986348050607, 0.0026879528326959803, -0.12413938141068574, 0.16886904324540736, -0.0246548788612341, 0.03517976293781512, 0.07273514183242333, 0.30892552653282257, -0.22371603360255446, -0.12141892932698105, 0.2901326224965456, -0.10653590620658275, -0.06290744172039162, -0.024448586147094692, 0.3647015380836723, -0.25970387440434983, 0.21809829780782497, -0.22876419378713497, 0.40956850240142617, -0.29581032006254615, 0.06843485837575164, -0.4200262062712529, -0.15366451599727204, -0.16245660301558928, 0.3280026559942263, 0.7273370350362783, 0.1125405745978627, -0.13014454166455178, 0.40841218226512216, -0.35623206476726593, 0.42934659173117107, 0.08668774609285773, 0.27978078266894946, 0.035135434945472555, 0.14721616891684114, 0.06304041274336022, -0.10789762958812636, -0.18014686962659668, 0.19830044050035037, -0.4462798367915823, -0.08592991810579668, -0.3574268213286, 0.29410638709935377, 0.027661273158599856, -0.5870985699181155, 0.2860415859098616, 0.10360084249178285, -0.0008196568441720565, -0.5013518958229304, -0.4476391423844076, -0.444184995467086, 0.13124522037181197, 0.18262011537627598, 0.005320995910250463, -0.01082290526755765, -0.21007792445330434, 0.18125484269322406], [0.49440356094254445, 0.5166502762028536, 0.33039061608081277, 0.3354579986116251, -0.5553141082711301, -0.6772704833524109, 0.2995319862906961, 0.026763949877468496, 0.09209658716204434, -0.5994445560911218, -0.3511937779385796, 0.5556437485375435, -0.5446086454179948, -0.12073343170976503, -0.11709867217417984, 1.0013964015380767, 0.07962188074740831, 0.14360547180038707, 0.3306539679886849, -0.01936846802305791, -0.7737938486463907, 0.9622686334794485, -0.8394270450113761, -0.2144607435726609, 0.15527081461717696, -1.0854895758232106, -0.5872134202422735, -0.7012230982881568, 0.27323060598810844, 0.433513472747285, -0.3681857104171011, 0.2868400177089837, -0.5543133573343805, -0.23898019910133456, 0.39461225657505383, -0.5779887954764935, -0.5024500644070126, -0.17737353059181332, -0.11907026622375046, -0.01791786912122687, -0.10373751591153954, 1.0814946304820203, 0.897703646847276, 0.2782994239257976, 0.1307845400133773, -0.6178596167976543, -0.4723341652316543, -0.17254782935294663, 0.09395797502746561, -0.23259738835353505, 0.8697115255564747, 0.14692218427144677, 0.925183917887142, 0.052317575128909125, -0.3795654658499299, 0.5755631481550887, -0.04232901541428107], [0.516703581109363, -0.37926043595427966, 0.4534103327062451, -0.9768632783671339, -0.8804240111102599, -0.4428834825594942, -0.009251178281820807, -0.6765313919117876, -0.08051604216217825, -0.6046836422791131, 0.11392003739646782, 0.5677226906023372, -0.3111154448243624, -0.2229649142197587, 1.0344619128529595, 0.3242812739034991, 0.48813234655351584, 0.034995649514230606, 0.5651142963136218, -0.21806081575261022, -0.21710746704965042, 0.41580832192005107, 0.7549811468493811, -0.6557801366701792, -0.10538014741075302, -0.38836619896554514, 0.9484978073655392, 0.49463258408319843, -0.6581438659784351, 0.7333696166257747, -0.13559799685137985, -0.38980549331198466, 1.4275486521071559, -0.07462963725231185, 0.15556278185961328, 0.026740593901367977, 0.14573361334581672, 0.36073125047186483, -0.11256828707251115, -1.4298828332906437, 0.3080154764617718, -1.8187462595681265, 0.5185575699937641, -0.34928137697818945, 0.561477378515434, -0.07541774368038821, -1.4717092692346438, 1.1754005644307943, -0.8970836874734865, 0.21676937305050667, 0.5429519547159262, -0.020034844972354627, -1.1352339742648256, 0.9593199028015607, -0.5229138216987578, 0.6722355104650561, 0.7432011486119731], [0.0438344926068585, -0.14935275714458404, -0.08824572080399477, -0.3255901609891076, 0.11196130305038327, 0.18137320343833105, 0.2859509058156263, -0.1075326798911508, -0.008505314511611512, -0.11782604882799189, -0.05428537791783392, 0.018270323006346446, -0.2537598503348929, 0.17061690009703362, 0.16730287282169312, 0.011640429086861097, 0.26623137358695326, -0.04751864308301444, 0.27642822592363936, -0.08211987928139913, 0.24898733893716135, -0.07029252365325087, 0.18559680193514672, 0.08404137969677798, 0.3531021827712326, -0.15912988503105002, 0.023522792060683972, 0.22879615787593524, 0.24685338123888056, -0.12488585591058736, 0.30877220039050296, -0.4206675119779678, -0.38997191067814413, -0.09594919502871276, -0.17225900107280756, -0.1917455503910154, 0.29610210270763665, -0.05811326032510626, -0.012091922710359972, 0.06300390072869677, 0.09604393136650906, 0.16463575034109587, 0.0335726951615313, -0.058554023808356975, -0.5013400509467125, 0.14807139169909514, -0.09641242023481086, 0.0468539413628611, -0.3114299747474727, 0.026415911508352246, 0.06772956089754566, 0.13264478481050507, -0.2372932100170987, 0.2334200368046053, 0.033561574982565644, -0.05325124739752458, -0.3672084543288192], [0.15429212718564017, 0.07519650286504032, -0.136040113408798, 0.24893945219080058, 0.30032183301958176, -0.2510312274332904, 0.08175989560846854, -0.15289871069582103, -0.23762263302510683, -0.16463203385273725, -0.12041832565124533, -0.27708196870153373, -0.0333784091539596, -0.1430514295025321, 0.15466157541656161, -0.27240487195273005, -0.07756304956459206, 0.04915705426609303, 0.4922342899117692, 0.17784337374622208, -0.004656660851106116, 0.07075319361700408, -0.20652488305220743, -0.19615474962904056, -0.17535883339636565, 0.016469297205712424, -0.02020589561389982, 0.19734088060413146, 0.6134689376348303, -0.14445570089083626, -0.38761174116683167, -0.4269394826445708, -0.06537269116907872, -0.33615762483315176, -0.061556697675596, 0.07380167964137067, -0.16448506824118192, 0.21876191049771818, -0.249561300813979, 0.3889000756480707, -0.06429971219879314, 0.2685755557785808, 0.6449697932703019, -0.04517620883740879, -0.5563887083574551, -0.11515756172274168, 0.22915655924404688, -0.14006367653876137, 0.5430345616537079, -0.3354346398233009, -0.2818366011910983, 0.5719606004244933, 0.006796438370480289, -0.019417233650545512, -0.12582948677543748, 0.21301133825235327, 0.19732653860193486], [-0.09466366402060208, -0.625951477241249, -0.953977412638329, 0.5694689779207, 1.1176688166259583, 0.2378395934315978, -0.5074097546588446, 0.5202947239988066, 0.25226960429993867, 0.028990504523267156, -0.29479043941775934, 0.9795485547002208, 0.7214673963406235, 1.033075417986779, 0.039245618437718746, -0.9940713120822308, 0.386557185112727, 0.5095871953974828, 0.9879150798470645, 0.19469519860419723, 0.05677748380477776, 1.1804911679498655, 0.1747685571230206, -0.5616738649045001, -1.4022215151427373, -1.4830249485741807, -0.7117785599305126, 0.4215828186072537, 0.2378576963487638, -0.368629338247468, 0.42875186920077274, -0.15310525536254885, -0.2838759392244852, -1.0256248575426616, 0.5292336276094044, -0.3334496766975252, -0.9291516492605117, -0.7865450227856647, -0.0002729506697912506, -0.34822425566632387, -0.5580490991408262, 1.9729463490601031, -0.8799657368020218, 0.4421044680448841, -2.2689949503978912, -0.5445761962015061, -0.0969821881864872, 0.46328475356800375, -0.28375875450205734, 1.4169035873713958, 2.1358373189080604, -0.020745951904034148, -0.7208169784925743, -1.1395201934414363, -0.5484527888732675, 0.7144313829242147, 1.1665549984256132], [0.0002214222009176213, 0.13007338373546157, -0.22004245918375867, 0.14309544544763614, 0.0809829538982344, 0.3095421149178052, -0.08337827837720187, 0.170071689871155, -0.16995944838009786, 0.0014799831923008864, -0.3861853482990367, -0.06738682902007032, 0.36937672439880576, -0.476313089378466, 0.4337107596413089, -0.0136694887802354, -0.129317159996474, -0.23134449352425476, 0.026013280120623202, 0.1925804456445978, -0.40333236480711454, 0.31738429740715, -0.2874610796419282, -0.03790642477920404, 0.0008679877486893752, 0.184236624207746, 0.2891664179917557, 0.1746642307554958, 0.3084211013712746, 0.3951868975126586, -0.21247610041650578, -0.3064521545069605, -0.37350572856987174, -0.04355372091014425, -0.4027846441352929, 0.053682646684566, -0.028942447996380162, 0.08054411867346246, -0.5011183325475449, 0.009922926157956265, 0.044252831821769506, 0.36706124855534356, 1.3468248178745499, 0.06692493218779813, 0.2421831262882075, -0.7906884931808097, 0.13883199963926068, 0.08896030918018126, 0.3057394755231226, -0.6046803902956567, -0.1371615187373133, -0.0013539283667840449, -0.12715296194813305, -0.07867860499979508, -0.2447708734565794, -0.139371296004249, 0.22698508528275685], [0.21398047936935, -0.44265388550142803, 0.21187633820890928, 0.09806631608710521, 0.34059836696601403, -0.553337672138807, -0.367933779574485, 0.044255674383019535, 0.005540959013210795, -0.15874702484249645, 0.04886287487623598, -0.3153577663551762, -0.12472961348596849, -0.24805741903018824, 0.658408487695889, -0.7940368559720787, 0.15941929193878177, 0.08906809500522139, 0.9963993023731246, -0.16559884752455944, 0.3997198807085706, -0.37646135030950345, -0.16208228252833076, -0.33780618870801055, -0.009458372327509647, -0.01712800670511762, -0.1664685607076567, 0.0926102118123645, -0.23321318758620166, 0.4911507441052069, 0.4549615749337455, -0.6308196624183638, -0.008614303062666912, -0.33240083610129034, 0.733153766662302, -0.47779579019843754, 0.2746483575140073, 0.012715130120243522, -0.29746178636320764, -0.12465385786687894, -0.20400780507694094, 0.021964149765137216, 0.35175793456786947, -0.19511515435437524, 0.8255762432614815, 0.2645086998487145, 0.15774849505591118, 0.12328944661521071, -0.202449527107552, 0.3419786714223581, -0.9190604231708943, 0.34513411148284584, 0.9377552117424441, -0.42433575373893523, -0.6587282611196821, -0.03680723203810347, 0.2901070706991855], [-0.036586966910049555, 1.262670559735127, 0.11908963872927898, -0.045736664214256616, -0.33348516025771757, 0.3043366464542463, 0.02013669655236904, 0.02593120392807456, -0.7557415715086471, 0.0935992299874856, -0.07533721364629493, -0.25804818597083456, -0.5279478995157909, 0.7251467174991397, -0.7654332925541424, -0.20189632884182138, 0.37083262315495846, -0.518623490493188, 1.0070990682505596, -0.41920622490555276, -0.1274975589485546, -1.249123916244313, 0.3716870247702783, -0.03031293039688901, 0.607792531429608, 0.6629272725577159, 0.13527864584793878, 0.6312958404488916, 0.44750402551014373, -0.5325434289711477, -0.0739735839108267, 0.4940519164114754, 0.16780982811348527, -1.160740226124048, 0.16178810750456973, -0.26263674858784863, 0.16227178333428438, 0.02373789118391623, 0.264025123587365, 0.7169443644280395, 0.5686759554317781, -1.2345509446698375, -0.09883596967150372, 0.2842276880814806, 0.10544498160037605, -0.48995953561582173, -0.5376984484998754, -0.5386415241459326, 0.353211942982704, -0.40543136090357895, -0.6957844315970145, 0.11819119359211812, 1.0785975489205875, 0.37023567079632785, -0.3763910802229213, -0.5660393883640387, 0.6636352281005864], [-0.6184351994199656, 0.8603429245118733, -0.47278502800695404, 0.9373135253646699, 0.980752296296956, 0.9005137364921714, -0.7292490308314162, -0.0008706794250909702, 0.04109012707501859, 0.9526443698400467, 0.2582013653002834, -0.7250268987833953, -1.082953454216259, 0.8040194421822524, -0.34765465399590756, 0.9343125933635255, 0.2771774261261451, -0.7215135746734247, -1.3720017096758677, -0.013907871707214522, 0.8554329772623475, 1.315394604475348, -1.9500336666371487, -1.1254255219122573, -0.9566517092979707, -2.113568056019888, -0.3583340029892049, 0.6141857760458332, 0.42712029985773836, -0.3962505629936531, 1.1930142978826221, -0.29733396048997035, 1.0981680175568886, -0.5021645958190748, 0.1304990255930254, -0.45797135977506365, -0.2603557678089528, 0.8811255203196613, 0.28422857707380084, 1.6892174791201469, 0.3395888951576383, 0.8454254879620192, 0.47945989351821855, -0.7575315199400913, -2.2356133074898956, 0.8375596902609967, 0.7285359172557904, 0.34783427944409046, 1.0891572974623904, -0.7616590927260718, -0.6748344198936211, -0.9446171735935188, -0.5217264924822317, -2.229102352082611, 0.5022240681980936, 0.40336192248590075, 1.619663991944762], [-0.6264278851146834, 0.7865068255223857, -0.40381044869878346, -0.374165674402374, -0.35325581148087054, -1.3342412078446186, -0.842974437901847, 1.1077195133654387, 0.4994560472855377, 0.3920020586187376, -0.6521613322487055, -0.4177369178915589, -0.6462195012396038, -0.7585857070281403, -0.5110549920509557, -0.4064380380960017, -0.15316684649205625, 0.4771898771870816, -1.2154543983694925, 1.1005833937375944, -0.9738183203420308, 0.7642919469056908, -0.7571052964010853, -1.03193575952658, -0.11532020382670377, 0.8934716469881745, -0.3002385513300047, 1.118497143269691, -0.13266797408439637, 1.1217118165107993, -0.6383929175598099, -1.980894407704741, 0.01137676588340627, 0.7568513723150551, 0.12616012351176092, -0.23127170880110323, -0.3055610159848274, 0.5419358724610939, -1.346512453731627, 0.618307611324115, 0.3062528924160699, 1.589476303485523, 1.0324997341064148, 0.20153066795585248, -0.06773988901838612, 0.7904386827690116, 0.2869686568657714, -0.5907285623054752, -0.4307827264658696, 0.5874050515046627, 0.7248100789820459, -0.045450005633431635, -0.06485321981184161, 0.5083451332843352, -0.9262791445985197, 0.8133348244313675, 1.47818411499411], [0.13360288977371082, -0.2862072508790092, 0.2528161630365426, 0.02243796306996696, -0.198225878881239, 0.1935523571851131, -0.01395361024792278, 0.24123842281871194, -0.1076639579924134, -0.03347756778830382, -0.05688974249847082, 0.2717507039722, 0.5301371063777116, 0.0007362862939704185, -0.6119750747685269, -0.3357721211141547, 0.021521252585069147, 0.18025331218904733, -0.04480964758056103, 0.47477333026114216, -0.21591247010076084, -0.19100005744850596, -0.25271776987904654, -0.2818228405758637, -0.30729645412447737, 0.2684067762729518, 0.25497314654678693, -0.012278277669147164, 0.49733184244390904, -0.65956763557904, 0.2591194428611387, -0.7114801781247726, -0.05444086463075811, -0.10850290674247398, -0.08420030859595398, -0.015236651947234609, 0.07758550627180519, 0.10677346442694029, -0.0609661822831148, 0.07797207909200148, 0.13802678937159327, -0.2646930180692534, 0.5022222766109418, 0.0053639693476311276, -0.00598912619991941, 0.1402508137197398, -0.12429808248685757, 0.20932018105831074, 0.07562758068928542, -0.17333834260050324, -0.3025553123751016, 0.014334601470530723, 0.2902064925309494, 0.17322150667576142, 0.029409327270029706, 0.01911637882316348, 0.05317347415939726], [-0.5678272935905757, 0.7431849996068415, -0.8401934308524539, 0.47798642989176066, 0.7388397937614553, -0.7927069783937153, 0.5444932462210258, -0.3909122738052968, 0.13751804373434454, -0.3467090552665365, -0.24219706716154504, 0.09629003467512127, 1.5734208725825598, 0.2771074492196465, -0.7037116937566488, -1.4044361385029993, -0.2602301397684491, 0.2702078502567795, -1.207836986117525, -0.7949243033491279, 0.7038021007688977, 1.0489722698053436, 1.479612182094848, -0.08385920093981088, -0.6352978432866339, 0.3356841976083582, -0.4320316732855414, -0.9701389138399071, -1.1544781820268044, 0.1644438759064411, 0.34650630482965483, -0.35953974096141195, 0.1202873117697217, 0.38131347179263936, -0.23428373404421432, -0.5440424697481324, 0.1905050517784612, -0.5462245876129919, 0.6034800722951383, 0.1654837577698994, 1.9237195403101552, 1.5098217698652654, 1.3308369912474936, -0.08052331276880953, -1.5578802855186842, 0.18670304908890897, -0.7785931862950978, 0.3478187449049662, -0.33103830318474753, -0.09778092668125088, 1.0484147734246974, 0.2153514475110148, -2.170773361427149, 0.7421387561631341, 0.04931681801187971, 0.21178841896892894, -0.436915160575485], [-0.30001559371128467, -0.2754063607180215, -0.7406698340979537, -0.13186416017574015, -0.09921509061663049, -0.1956492308848034, -0.314659694158126, 0.3491828465610916, 0.3453115323316113, 0.05617941414274947, 0.005676457601547654, -0.19871690512484075, 0.09700925173763422, 0.14200254031126153, -0.12050801429274273, -0.265767376184733, -0.19707403458895276, -0.3148456158262664, -0.07202470626092017, -0.18308111959235104, 0.46506139133829366, -0.46369190714633685, 0.3811738242982281, 0.2543777075265926, 0.5121098733798161, -0.10901245850389227, -0.12294623988054207, 0.13510855931765148, 0.731549313068501, -0.04397652461001411, -0.6483508105985311, 0.6376293508787513, -0.3858028344174712, -0.3173603646400713, 0.17880499518744736, 0.06322371248242975, 0.017266873541769166, 0.27128249164856233, 0.1048574827939176, -0.05745073136245185, -0.09951378347644688, 0.8684968527135585, -0.14099755444241135, -0.1234209884396047, -0.23567096809530472, -0.5198001385327047, 0.06963852695284016, 0.0029185592863205027, 0.012955863544409118, 0.18415666210892437, 0.4168537658735151, 0.158598977334272, -0.02207991689208512, -0.09359700325552912, -0.2581055275233826, 0.41539023234319056, 0.1744615468223502], [0.061223256467587285, -0.27685510581389666, 0.1753717098916719, -0.06781012326120166, -0.07587011926919983, 0.2783385944550907, 0.23083197637092406, -0.29812792459223975, -0.25290189622696313, 0.13963384853843136, 0.14011801547535, -0.13318098701729872, 0.20370282820380456, -0.10917289280623092, 0.11217964380472985, 0.04265727465285828, -0.03975352509898836, 0.18306734325111373, -0.06316620710087656, -0.3079366993365903, 0.17909786444743278, 0.4109851334274317, -0.019740946949995654, 0.06796558816417508, 0.17043752870030954, -0.3869398942058025, -0.14250132835351093, -0.22611366108366576, 0.5633433771099773, -0.3934275816751291, 0.0008082971471986801, -0.24351611596885941, 0.3928366944620535, 0.055490743634414565, 0.06901673352624814, -0.23396847847424415, -0.2501347072705901, 0.255152771443764, 0.422250675630866, 0.45683651192101166, 0.16433396859691696, 0.8065003812691882, -0.04007387439252484, 0.17442510130936892, 0.27887570659079475, -0.5297674768384659, -0.3902975677829077, -0.43076218167923225, -0.44236848736758144, 0.23339150623402963, -0.15854072716775575, 0.22523401791122294, 0.26691532765195625, -0.4685414089989951, -0.3768909718554546, -0.03408955296338012, -0.368588155221512], [-0.011637961771549339, 0.1880647660692993, 0.09247688534659575, 0.3347016561125816, 0.06800262494370157, 0.22428620298794325, -0.01245305730144526, -0.09818546761285757, 0.06621083479155082, 0.02690245048715397, -0.12695233000221276, -0.22229230983228576, 0.39538706632696174, -0.0015236138159024078, -0.03184574359647957, 0.22618016018579468, 0.11911242012657969, 0.12603505259180078, -0.13981336557375934, 0.20585712144123444, -0.17923960715027143, 0.18537199475920269, 0.04003153910368131, -0.27549440298067873, -0.1873323153866192, -0.35558622306793575, 0.25556225259119897, -0.06449957472659154, -1.263926820355888, 0.1717018586002057, 0.39950583236955245, 0.3659574867915311, 0.14362012012803554, -0.05097247568664743, 0.2928901193465675, -0.02491167764255793, 0.1498388588869515, 0.0879826977630789, 0.14621295274270352, 0.14960993277711906, -0.20238233332533248, 0.5395836311631919, -0.43574581556706654, 0.0016338312449069344, 0.17547486708426646, -0.11984061418577166, -0.3417320325080241, 0.21085139048996626, -0.3952545777578416, -0.541108975840664, 0.6954583649103676, 0.07662504684651979, -0.18090676512744347, -0.6703354637155418, -0.2732592879129305, 0.18085936201977776, -0.1347689157122619], [0.2060998326083676, 1.2876717236380217, -1.4356462316042609, 1.0534254717256657, 0.19751155766201212, 0.37652953460526967, -1.0618724917465794, -0.2766826006853811, 0.4113705532743436, -0.6543839219825403, 0.08133617301076816, 0.25039690110521745, -1.6078748049556586, -0.33062359838472255, 1.386506693384771, -0.19980191636124744, 0.5137550926482672, 0.25522503763349846, 1.1487192319075799, -0.702268329715944, -0.25465539515439034, 0.26399315507806165, 1.603541667787805, 0.6833004543736576, 0.04347652812574982, 0.2884194270171842, -0.04887866138109999, 1.0804761449180134, -0.5407460492196403, 1.2078874365681525, 0.4687773705459204, -1.354593903918699, -1.065136848987172, -0.04372604669112686, 0.5051298448785226, -0.0837428181589873, 0.41571224564292736, 0.6508687613439832, -0.08522992659020921, -1.2114698571421956, -0.1447334888952534, 3.566007128352884, -1.0094053810553225, -0.4527462565535032, 2.3454249969760643, -1.6567448954754407, 0.5609663013615495, -1.7547994028686886, -0.2838384723944186, -2.469189739779413, 1.641370430999752, 0.7355217742705308, 0.1828698641603977, -2.6573624107989104, -0.28647848702656165, -0.34819773861248143, -1.3915118763658803], [0.29102505368986953, 0.15880454156342208, 0.16397205786608188, 0.5034556378339505, -0.4548155675622899, -0.24067905701518646, 0.07682618372157833, 0.1321311838951339, -0.1304968069822141, -0.13236937094095697, 0.05382270063897442, -0.21200497932198487, 0.2656765493207908, 0.2134554473135948, 0.20452188773373609, 0.29908701246717356, -0.13111373385483838, -0.07591464300247305, 0.21322556896640607, -0.04986994892782138, 0.03740308871367122, -0.31076986009840346, -0.21546486508629395, 0.33600727541842823, 0.04962255083114867, -0.6271000073123912, -0.2653023908596276, -0.3382609790531391, 0.6175086150324759, 0.18083266117236324, -0.06734064717086422, 0.04778519145188934, -0.2880399873894006, 0.3328905313140172, -0.043938179031144727, -0.44438742011405424, -0.015688300938605706, -0.11387027199950026, 0.13182367670642675, -0.23037085398409402, -0.2563659598503686, -0.04736035356842509, 0.22724113706752005, -0.21320229457950876, 0.39717547701579237, 0.32697282734636957, 0.2251603161602131, -0.016804573661713524, 0.11134141163773106, 0.5224280247655785, -0.6921236025634976, 0.29380461126180485, 0.4902161010960339, 0.3150474796638408, -0.2823123528776391, -0.6431991793246657, -0.6800967405134162], [0.09170209659765106, 0.11713549935845825, -0.04410575750650688, 0.08927592710682765, -0.20049846145293845, -0.01541032369377148, -0.18798719123326868, 0.23345339049293237, -0.029215328321682037, -0.31422940727586374, 0.2879406224047661, -0.11067597081232995, -0.3268870600085293, -0.01998865403105519, 0.21316878444652237, 0.24104036735346768, -0.06775591270281724, 0.017897853258739722, 0.3651515485862749, -0.126700950755715, -0.018329769149066158, -0.18569155040724739, 0.1808728009135546, 0.10458030565023135, 0.014608964880359647, -0.2418332555489475, -0.12338657733390498, 0.005420572348699968, 0.5084713661383965, 0.04256590516750958, -0.2239985358562015, 0.04134579201861749, -0.17201167879151477, 0.00650992194532319, -0.0928260591729676, -0.059583575962052854, -0.04849778361891455, -0.10725801835721757, 0.013672643087596631, -0.46022357370869643, 0.10126258938557453, -0.36971851619067136, 0.2624516912813326, -0.11979791642185537, 0.1258083359115554, -0.09899577619789061, 0.241315779025193, 0.26911779745292175, 0.281736960568874, -0.02435491700525111, -0.17564160031414505, -0.17518718564640792, 0.3783845588945551, 0.29922063637589996, -0.10259589723966739, -0.30244656082564775, 0.011739690849459307], [-0.09224124725592892, 0.03061903224646137, -0.679927153004585, -0.3276029750941858, 0.4047980964949583, 0.10037377553812879, 0.18737520597195595, -0.7524222374881088, -0.6261497542920048, 0.4478448706550858, -0.5930834450174819, -0.03824758983873003, -1.1001166034582532, -0.2617512874047234, 1.1591397666230079, -1.6723882697001384, -0.052575430169879714, 0.8255850254221512, -0.3772038764139552, -1.3814475265650263, 0.24676284885454633, 0.5568025530050705, 0.8450036704676016, 0.08870522929658202, -0.29614351903603425, 1.85076576991843, -0.25340123860064967, 0.9332631916221413, 0.8811878454401231, 0.5239560930175164, 0.2910053526210772, -0.825023273258941, -0.165751076842305, 0.9953533227963104, -0.4133595923517578, 0.2810719170874186, -0.019867715605164343, 0.16104739705397994, -0.006361212653546927, 0.8651619756459027, -0.13210837603512202, 0.4977312490430207, -0.8080854107975839, 0.34747774960245464, 0.41860299310962373, 0.35238191753642023, -0.03099528768599602, 1.1314465785821965, -0.06435020901413364, -0.1261136646222082, -2.113565975517021, 0.8940946265520692, 0.9740904480933218, -2.433788495272858, 0.0005377841935947281, -0.30905881105852745, -0.33901751029278754], [0.11204636356731079, -0.07382712516423647, -0.14020819046429034, -0.26064238297659054, -0.24102291498304076, -0.5253251710687462, -0.10287996036754946, -0.22860128201904578, 0.35060055160510734, 0.040021252560457826, -0.19395649170704268, -0.4626649294182006, -0.6375229831760607, 0.04788230875181709, 0.15155540492066827, 0.36418205805769227, -0.4064171484985168, -0.34109861061495417, -0.33143591975428494, 0.40378927788068136, -0.011095285524373838, 0.32379084632975424, 0.4294472916501965, 0.0037111145452703013, 0.22896877843986435, -0.09234964269873269, 0.15564189342234447, 0.15277688249871904, -0.6082048406501618, -0.393347553969994, -0.41324178703295916, -0.4952489606824158, -0.3763320868816268, -0.38446700604130724, -0.03489041382912644, -0.2340077386278833, 0.44393236716703927, 0.5808593127059395, 0.6972614424925084, -0.7321276070989275, -0.04858009962482915, 0.39226552684214433, 0.6053645207250077, -0.10034977236998416, 0.13800671142248902, -0.13610711051303137, -0.06195260635836803, 0.4818305401119535, -0.1796982825502066, 0.21167736690550135, 1.365380737740806, 0.3287410356732023, -0.015569745706929958, -0.7007741850455218, 0.6487351925758487, 0.03697318345914275, 0.26852640085534857], [0.11279997971559289, 1.095163181752337, 0.581931561498765, 0.23884291862330823, -0.2178549099427931, -0.010661208565966163, -0.33062117182086603, 0.40712381015582605, -0.15772194858547556, -0.16208489655098293, -0.30155105390509135, 0.30658990522019697, 0.14360107957481555, -0.023449669015998986, -0.47405184622008406, 0.5633805403667702, -0.1422959210366019, 0.029428867365667834, 0.16197011143776616, -0.4368312615747183, -0.3293744312852251, 0.4107543829948076, 0.11758696303297622, 0.4746416701864001, -0.2638930174130833, 0.1509557078347692, 0.4348197966232436, 0.47131003402716654, -0.7209382623190188, -0.40182865970922593, 0.08114758379916215, -0.6836798886414408, 0.1816994918703155, -0.48123638733095947, 0.31776787320927696, -0.28978023484846893, 0.2533460140590362, -0.09036903158017301, -0.06075349677807664, 0.7370302127406354, -0.0887529285464393, -0.5777147981323068, -0.40382808961867106, 0.06650774540476685, 0.025696664866059205, -0.30611057854250157, -0.6132097281715874, -0.23898360292314183, 0.17202209742516825, 0.19758143736038253, 0.45199449322935875, -0.1395826546494163, -0.8347576750600705, 0.34467312690011964, 0.032395747043536954, 0.09310323285315311, 0.12602702389142334], [0.10812343393380654, -0.7133347811725949, -0.3760331391850053, -0.10420259327774441, -0.052368970320457744, -0.8694265884171838, -0.26318073265290726, 0.6865946151773489, -0.3477454948732731, 0.14788720275398948, 0.5733777521735297, -0.12521298434324266, -0.014958628225286956, -0.06511921899484154, -0.12681372648220599, -0.7290950442704855, -0.14457281039955733, -0.5426320756195148, 1.3449872151368671, -1.0199670351074779, -0.19407803601022472, -0.5363919894374101, -0.11868437290131686, -0.541981886333316, 0.6892879267870845, 0.8400057663346232, 0.154101852104292, -0.04596170316307886, 0.4715906901668958, -0.22918726233769202, 0.051026008921845556, -1.0785099359040893, -0.738627086807902, 0.2730137371014452, -0.2413958970521786, -0.451760367148717, -0.272940044611007, -0.10326102814784713, 0.05398732613490864, 0.7329834673046635, 0.12221432023059381, 1.6556305656157342, 0.4201131333537257, -0.21185927831753298, -0.7000479482020756, -0.040005705624029234, 1.2672966326960202, 0.3449152687848975, 0.33668104705213997, 0.6002829674432676, 0.21012842448239785, -0.2246703390586196, 0.893540148902809, -0.3519792752248389, 0.2543957524678197, -0.4979701242707338, -0.15823909141397718], [-0.8790465896321089, -1.4097983686735966, -1.719902743375013, 1.1702147999315737, 1.929460028284309, 1.5995042372026471, -0.23484754832138835, -0.6379335302615299, 0.8220541283670567, -2.0036116721168318, 0.7795620349204081, 0.6087558055746952, -1.2830664593894345, -0.312253143876354, 1.7752245564697213, 1.0442860574265733, -0.3112180479837948, 0.685682497614876, -0.44003042197195447, 0.7853587623102731, -0.40805020511237516, 0.8378066058799608, 0.5162902014039422, 1.1681618721547928, -1.5552975854643392, 0.640117864192681, 1.1932854235315709, -0.3882344626222762, 0.1711793339924882, -0.7882788848782228, 1.106040949973449, 2.2656213918052477, -0.5991656352229888, -0.2498806604272627, -1.2966693982278168, 0.8496987151373567, 1.0705941585833614, -0.08260684892363979, -2.5563909986908904, 0.24632031880194385, 1.0568261341362506, -3.4843707070164864, -0.27003525110328763, -0.3841759937504319, 1.1608186687362636, 0.31985549791877127, -0.17434754637513564, -0.684605441296853, -1.7905128896170754, 0.07215467228164625, 3.7690216164188404, 1.5049009026188982, -0.32825632614435907, -2.171604374422822, -1.8170783617320616, 0.2655092806820184, -1.1529335983344227], [-0.3721524063375842, 0.3796633737714395, 0.09067992434435407, 0.847944972930591, 0.1713939615856078, -1.2018039415991353, 0.4175994507086625, -0.16360983166577067, 0.33861406832454116, 1.4621379625755888, 0.7391730864039887, 0.07897244914690642, -0.07122198507597993, -0.610222870997731, 0.2746477779577036, -0.02143667647656253, 1.071588019113973, 0.05827304044546723, 0.1757719581305751, -0.038024467036479624, -0.1475520492562735, 0.7666422361079612, -0.7153434179612885, 0.42548677616269615, -0.6352125532625212, -1.1083730988557328, -0.2924574268548883, -0.050497541435141124, 0.28338560065177015, -0.041860602279047684, -0.13051544239067667, -0.44584617732801746, -0.036268940331111214, -0.1283123284510585, 0.8139837329321962, 0.9957236584010007, -0.463908559803751, 0.0669234893435335, 0.5637765486736341, -0.42621371373514316, -0.2026712808230692, -1.7249806853961298, -0.7307410088664233, 0.27580529539162746, 1.5156528119247084, -0.9854124998711301, 0.4514849285216354, 0.6233510745159612, -0.558758905325485, -0.3996180814123686, -1.7826187304279815, 0.42522566988130706, 0.4060502572875425, -0.510765926243635, -0.37682147501524876, 0.31582277573332423, 0.33737066951163136], [-0.05186690133285591, -0.28406708410975656, 0.22519476971899477, 0.09141329138842884, -0.14750124271490606, 0.15005206167887714, -0.05439911955878083, 0.09828920697802332, -0.023810262016985037, -0.2981764017652685, 0.18950319832711535, -0.019941233351918143, -0.39746637686853414, 0.021434034432708516, 0.3041448320533022, -0.20982508403070432, -0.16899426279234905, 0.06374365814775566, 0.015370409940510853, -0.2852942329459496, -0.01239636588838396, -0.29415991760554216, 0.3372484133825099, 0.3684928116778664, -0.23296978119870815, -0.1417914575838846, -0.10049720227375987, 0.07749063620194109, 0.300738697827365, -0.04525303848762607, 0.29429496261023397, 0.037163849947025554, 0.35811083307293107, -0.055638587258898795, -0.11534401874053, -0.1940326755989137, 0.11162000054922828, -0.043337967914139935, -0.1323002895729194, 0.1993811124720969, -0.09557017027496041, 0.4201044820768595, -0.5148675345855882, 0.08951875897373918, -0.5027309294663231, 0.18949564786891882, 0.5755171379098164, 0.7440783713589082, -0.008467532899851516, 0.3786046538376374, -0.2548258213113242, -0.2931936657925864, 0.4187690448954239, 0.22959009436624805, -0.47655898678808584, -0.303445319754261, -0.5306105997382297], [-0.08305600676377398, 0.28931380656476846, 0.4710106033061241, -0.26841634158393896, -0.16684158930727835, -0.10787295769674844, -0.08517820060923628, -0.07255923740640235, 0.18499453958079795, 0.12282885331727612, 0.33984175097852287, -0.2724010817355648, 0.04486471103223997, -0.13197038760378735, 0.06154592977919359, -0.4253149931546157, -0.042420821884430575, -0.043495752037019754, -0.10455772071648135, -0.4169011823502301, 0.09251153258673363, 0.08136375199112332, -0.21692881438684009, 0.28395160576545564, -0.21258865372700925, 0.18896699804033879, 0.16785378636018408, -0.06992655576742017, -0.3527240568021325, 0.07246183362756142, -0.17763334353929972, 0.07471265784915895, -0.3812688451720257, -0.02697661691919681, -0.13092407058425948, 0.33789686460390556, -0.11480931680630636, 0.039698503726528424, -0.2154684088735612, 0.0930939315706786, 0.21652562024212527, -0.5102253412958707, 0.09999041000648447, -0.04826997493091115, 0.6979149882880247, 0.20118842167607545, -0.16695758863709728, 0.23524716879543822, -0.08440241580193435, -0.7165959880144505, 0.0021508835127172815, 0.42047369298179466, 0.0787379832567802, -0.10209418210355385, 0.17262811931845182, 0.19743649944620512, 0.47953309502757396], [-0.1276126646863063, 0.45300042191972706, 0.6015999829818437, 0.16202607091901433, 2.216658049471424, -0.2632544466745624, 0.24008462691262414, 0.4925915915638199, 0.32746963076885444, 0.5573571089996131, -0.7014274053815144, -0.4062962026897126, -1.3736018629479563, -0.6745840033675439, -0.32931282696913455, 0.9303703707649896, 0.10969244243424639, 0.8684816624812226, -1.7647749292434647, 0.36703540946922886, 0.42507279005662335, 0.1099698905192243, 0.47005498509396526, -0.49871265646098617, -0.0723731127102432, -1.6023359736582403, -0.11675213140686291, 1.267512445342454, 1.4454717930249597, 0.3787204317001523, -0.2558785445904212, 0.592918167386621, -1.2336182637563564, -0.22821039466612744, 0.6410665723518836, -0.03715516876238653, 0.22837525550741772, 0.5904348583839452, -0.04202423768740747, 0.03841873217917861, 0.5157707885754818, -0.6983520293647835, -1.1408488808610089, -0.4968683814014981, -1.4488026967489922, 0.026209077984736213, -0.08144052207859216, -1.0085971700084304, 0.6907713214204856, -1.0180731384539248, -1.6433556842070345, 0.3601589864787583, 0.91291950080644, -0.01596976934093192, -0.021017157747446388, 1.165511233185562, 0.11549304693081477], [-0.06714840045170638, -0.11004041455062047, 0.6145551171372058, 0.3338444271477744, -0.8068550789358132, -0.4924267309158146, 0.5702697188555574, -0.14010223691814358, -0.32993380012916435, 0.3876717642080549, -0.037344260888824664, 0.2117916957358089, -0.04436159109702256, -0.028002184787713328, -0.47663500545714016, -1.2165422857587638, -0.029262157842063877, 0.1408935936983385, 0.2906447545151489, 0.1742059717563573, -0.21078267353133398, -0.060565013947358484, -0.6744451002019777, 0.38102269817540124, -0.44120841285508905, 0.893992277521739, 0.4398712800061258, -0.3363297347121607, -0.8334266537305893, -0.07315941970524963, -0.11181227169288253, -0.17019339281265786, -0.3168519564562528, -0.11790835137944682, 0.09586298164995274, 0.060973634816555065, 0.14221109134221563, 0.28974741172746643, -0.04845652545950709, -0.24241775764209747, 0.05167794614673654, 1.9939711699644052, 0.42689907931235155, 0.04097806354815133, 0.12291963350113654, -0.13294857610340158, 0.6298521277489055, 0.5440117320005948, -0.2278334211132168, 0.3999227553978689, 0.28322190351502624, -0.7187318594571522, -0.5052408664987447, 0.4924497425649491, -0.30908274876808833, -0.3024970927218075, -0.4009768702679667], [-0.12265614278035876, 0.041196787267196576, 0.06164124365109703, -0.16577791298380182, 0.07320005040838568, 0.12423765622865851, -0.1592378576206786, 0.28272475878670467, 0.24211586036653654, -0.07637131832696448, -0.09227859956541139, -0.10617081194952033, -0.17919617153603698, -0.018388348000010216, -0.26766264075924956, -0.18888382158852232, 0.009333187292622044, 0.1417208063885975, 0.21976161133772346, 0.1150075655339287, -0.19329709741556628, -0.18820157815969243, 0.15251941680011435, -0.447130542846709, 0.545615862765887, 0.475222619634842, -0.4123792909073065, -0.06743700333090982, -0.11034101095633833, 0.17427160919147314, -0.14634109091347733, 0.03432280342014685, 0.008033349201187461, -0.033133190561639866, 0.13751391471039612, -0.31641223109704397, 0.08223285280718613, -0.0017173054989778212, -0.14588003831639731, 0.042309996633406476, -0.10986124329205209, 0.5033665624497166, 0.028664857864279133, 0.1692954013140744, -0.12590460294499253, 0.4182642289578028, 0.4025069396092269, 0.18099563883734127, 0.45747686234893803, 0.017432325352148437, -0.9125359572945992, 0.08838307080123159, -0.10762284913746363, -0.23393025586253519, -0.2857624575661226, 0.1687116763038977, -0.1835498737878045], [-0.3414327569249, 0.04574114532080255, 0.13430711301501777, 0.07897798831244901, 0.17432441580486177, -0.08365179488637053, 0.16365695820425494, -0.2736299574777543, 0.2422377713627399, -0.0032232987872034225, 0.03576481084194558, 0.04985887214153492, -0.3332026445854183, -0.22107484659837373, -0.05240419982859094, -0.2931923220099011, 0.034480710976039386, -0.02464453144942029, -0.28821754100128, -0.05107108004226633, -0.07774522900321869, 0.2999511837661461, 0.03626852970118444, -0.47576181930319844, -0.19928949299197093, 0.09255684310704769, -0.08927674907322651, 0.2314683656842996, 0.07160466958753975, 0.17223929623794143, -0.0008988890772265405, 0.21164534407657928, 0.1516927805456928, -0.2115866668849198, 0.4902137095443639, -0.08496004252871511, 0.07616053035327394, 0.13643361418988278, -0.1682800159701498, -0.023318726869116877, -0.14576084238202397, 0.5802683402498451, -0.6899043573614909, 0.15914104168743284, 0.16796534293564705, 0.171583066082897, 0.272424689684461, -0.003042579443590292, -0.04960557549066615, -0.07246315405954487, 0.05265652032349389, -0.0664650592676228, -0.1823974515944779, 0.22529405014318535, -0.11336518589964067, 0.05886238453323442, 0.0020958135726999267], [-0.049571956148361775, -0.01741098016732741, -0.4073028224245296, -0.15778550188009596, -0.46888655022208486, -0.031117853912636242, 0.34725577583490835, 0.03494185410780128, 0.11301455238519208, -0.8490373115037598, -0.3022304919952228, -0.1656436276253099, 0.8295445126821772, -0.06670316023949886, -0.27405723860270426, 0.02235147022967605, 0.4914095623812673, -0.14178351637031147, -0.028335134314947302, 0.16530442251110894, 0.372499191466145, -0.07228172329095749, -0.1316742266760638, -0.0750128970783861, 0.20643010443677173, 0.2571913949734707, 0.5709152487249195, -0.41380156723563977, 1.4132757525513417, -0.565658014591098, -0.7474582719095723, 0.3650614653050413, 0.12191873333235138, 0.045161762192497935, -0.509450105664559, 0.12507465348490274, -0.06050268716326162, 0.3440250946711045, 0.07845226827237302, 0.3177659346831725, -0.03221426107563074, 0.027235734015588185, 0.08124673812764618, -0.1233055112693137, 0.2268462827399069, -0.37390560546894963, -0.16535963999960518, 0.23349328610367628, 0.5102564029952645, -0.09426219039138112, -0.7763659198381967, 0.17021847761356387, -0.7461609090957341, 0.07803708927873021, 0.43038006111565813, 0.13615920113068503, -0.26820618241579125], [0.09616063115205248, 0.1518120040204326, -0.20435535960143988, 0.17518565102231956, 0.10784282972407286, -0.4146993589310793, -0.30072320353503124, -0.22011160968601926, 0.26784829647580705, 0.46871368624072474, -0.16689408924914248, 0.30018789977718585, 0.3402434276296542, 0.19581583036291467, 0.025829933848691325, -0.22393806776640843, -0.0856737608890264, -0.1619592772347722, 0.5686880568739789, -0.2717612902580185, -0.31166111718545453, -0.2276415915926211, 0.4771218377342562, 0.06312417344579543, 0.14861054084242295, 0.3479104313484603, -0.32998617860173096, 0.07162266187635184, 0.0053217369940622705, 0.24067449552479073, -0.1786152539915707, 0.13478311181689864, 0.2907230639047775, -0.07690362239648461, 0.06166369081741185, 0.14399038821000365, -0.049091919938275115, -0.11436886205499834, 0.18006387605367388, 0.09462600535261913, -0.2179566163928729, 0.3555663255583023, -0.31869545121421206, -0.1516413714631522, -0.28450323342686357, 0.162030191954761, 0.27621103296773925, -0.17260280838826955, -0.05845177808917163, 0.20546228061108054, -0.1388692013743508, -0.3029148567724328, -0.4335517685151086, -0.1613908747907256, -0.18294191298693976, -0.07879203877112874, -0.11712095738911282], [-0.1664597320654233, -0.23532875179214705, -0.0765598384758446, -0.09157448583182799, -0.047613245104315666, 0.16715602714329364, 0.21673911193100961, -0.2156276782263339, 0.29348890829775703, 0.5316607166957107, -0.3049031221915415, 0.20895762509509086, -0.13887171559432587, 0.27645539958917165, -0.1747718885448527, 0.0035029268959050727, -0.27579781024102523, -0.07818384013192062, -0.03369220542115971, 0.06325569903126506, -0.19782259555755646, 0.17170215390929655, -0.12619807024396998, -0.20532651988861259, -0.12879749728242498, 0.18219679515515613, -0.37956329675684297, -0.32437455293298606, -0.9791255597333517, 0.1535124671031666, -0.18570397789531504, -0.2962204216690419, -0.09989971683180177, 0.025541046187207508, 0.040848271229657944, -0.049333214011358935, -0.11845107855875804, 0.39816326866709906, 0.20502602946585907, -0.25634015448485414, 0.32691196186530486, -0.14256013100614287, 0.37412665287305086, -0.028088693418200715, -0.6881603658404223, 0.384159488273875, -0.026570416289242782, 0.30054817224807545, -0.058983755533317035, 0.045037034792393044, 1.2956865548630594, -0.2030204999279126, 0.14321398444815278, 0.3707579538860183, 0.2784026928393277, -0.09623491438359076, -0.026854794442485945], [0.7882846352112148, -0.31639668062855514, 0.32911765540204035, 0.5057511656241702, -0.1923998639913945, -0.5626543842474336, 0.23760073393696246, -0.45348017282589476, -0.6029743706030846, -0.8343465371305288, 0.16127918724534204, 0.356764109785923, 0.8880679001552523, -0.2467525341590753, -0.09210858446595144, -0.5801272222510926, -0.7856497133176791, -0.08055709730373557, 0.8199485094269795, -0.9229617356162404, -0.11986343030368712, -0.06960246970222125, 0.10824683856011112, -0.803204844868785, 0.13467855331815218, 0.5370723398708304, 0.16867773855035523, -0.22200317741190886, -1.9524633951883552, -1.5317204211008753, -1.2467103662093417, 0.8381311959378464, 0.12480185741778167, 0.43985902825999956, 0.38534069972887813, 0.046784553543080504, -0.15138110342628364, 1.127262176272865, 0.5462378291639283, -2.1100221370343193, -0.02723990137446962, 1.0587411513279592, 1.3152098572735933, -0.2686611639346193, 0.7279409147895871, -0.2508005363001822, 0.9834301673166956, 0.04037394732530449, 1.22961283813944, 0.8851241396553836, 1.1092142908961276, 0.052500477407972326, -1.27025376395957, 0.3721672146132878, 0.5101431036268141, -0.7951470498209295, -0.33892604987953945], [0.42239944398013063, -0.259016828580708, 0.3558355147937827, -0.5998408076566938, 0.9911762902948597, -0.2833307995585231, -0.363633608566859, 0.8557050757080708, -0.293074206542726, -0.9340910563928879, 1.3492480768666497, -0.700270206767642, -0.5646966990422553, 1.0699513992948086, -0.235832511063005, -0.4372114236321828, 0.03202850220007842, 0.48533421787362013, 0.7905412615875906, 0.972263952892226, -0.24573352394014195, -0.2501469516713428, -2.0382875024984957, -0.2820086684523094, -0.42820054949923575, -0.45648445127290266, 1.4261251417373682, -0.315739777107805, -0.77823279973985, 0.055429914091983105, -0.6127407956757023, -0.022410294191360487, 0.8506585265182386, 0.11935756619194475, -0.6421189536661882, -0.13869072938583438, -0.08758979264145664, -0.5834796488151013, 0.664042599125388, 0.8168339116048964, -0.43231279603910344, 3.2790344561570564, 0.6652629728895536, -0.041146131611827, 0.25882253749061923, -1.0683438806542862, -0.745738216067226, 0.37785858360165275, 0.19482042738505068, 0.935940890479402, -1.1716625303725234, -2.031825698272373, 0.02205645486050049, -0.06734210811236603, -0.24614185115268464, -0.24256325406740914, 0.6091675574575501], [-0.35161386716509313, 0.15562603808829553, -0.03655501638921578, -0.8872691759685889, -0.33760584411046046, -0.3226391294926578, -0.0783474436819792, -0.12889364561748604, 0.25445503706071143, -0.06534626291175337, 0.20441804497747523, -0.07371428759102464, 0.17117267421512952, -0.509955364253547, 0.6461485580611241, 0.26398968820420826, -0.0019261598442879978, -0.22740718127488008, 1.059802984951769, -0.4928775679799139, -0.21168225491097922, 0.6138550368187761, 0.747726897921728, -0.7428918400570228, 0.126459397754523, 0.13841565401279768, -0.3442940833247938, -0.1301879087179911, -1.007970815003728, 0.012233237665928005, -0.048454949731969905, 0.09109449742411663, 0.5217976724091107, 0.24247866681982108, 0.5586731065508257, -0.06900066797815853, 0.19839833087945571, 0.27067373329076444, 0.5920431051169576, -0.033742096728137806, -0.16712783598577566, 0.15931810949585226, 0.09314260995473846, 0.07482739857682155, -0.11329535550935196, -0.2621343461926268, -0.42161717529875026, -0.6548835745274517, 0.03304578673077858, -0.2574820324111287, 1.2985826105519014, 0.5317251406469066, -0.5196457020593869, -0.05790290524591352, -0.26531324269586337, 0.21573012032701472, -0.454111681212048], [0.3117625548057965, -0.2629344494991256, 0.3264060435917063, 0.06280375135187886, -0.5305711732727644, 0.2311375397035634, -0.031048604106234317, 0.11657008812883941, 0.11440584209870229, 0.049676413246691246, 0.027182774140915595, -0.10029589944671022, -0.06406409748836249, -0.2971215245161583, 0.26537234073723137, -0.7063436243110356, -0.05520046067463909, 0.24905361277157095, 0.31658158055013186, -0.45973790908173373, 0.19960667538629726, -0.1582339712142042, -0.03661717991577067, 0.014331896427871315, -0.4236905449763313, -0.35887313197140513, -0.1623973186494458, 0.22835519729189424, 0.06975462598497666, 0.2808237560063989, -0.1312655760072684, 0.1474176931615426, 0.06041639491180036, 0.017526710306368824, -0.017251066918637918, 0.11105064340868738, 0.20419259219936944, -0.2517730737331609, -0.1877507699803248, -0.30920875109072693, -0.03705873922683527, 0.3127268115187443, -0.050082811138000644, -0.017113290957437563, 0.23770556859387273, 0.04163335213434257, -0.3548358504266393, -0.20130826155597412, 0.08462281947949551, 0.35685806934619774, 0.071013624798331, 0.2163044154980925, 0.2276688723655302, 0.45561910494441393, -0.1511790529923356, -0.23039757804465696, 0.17778472453342933], [-0.16795512489120687, -0.9052047433134189, 0.04358801263520286, 0.20020371854109897, -0.45652812841190143, 0.3450516565809252, -0.7965440949579382, 0.09965183116721493, -0.24458998524157943, -0.38271105578761205, 0.08256589571360871, 0.6352740558056958, 0.2577192221291727, 0.2096921805565728, 0.3233511200077091, 0.17703472176690294, 0.04683223921676158, 0.01930431029111463, -0.4027357764454538, 0.5723489406813228, -0.5104079243641928, 0.521743434106689, 0.34437352043743086, 0.22031478465111815, -0.388840262957228, 0.24433288098254718, -0.5424137589190678, -0.29122102201874756, 0.7703838086510444, 0.5656027763385022, 0.6866058289872189, -0.9619479468966666, 0.2178456879956335, -0.0530074937231677, 0.4200918957651672, -0.27612814301976235, 0.12329540611465695, 0.21956847185672976, -0.6150307410070844, 0.3896531558989185, -0.059417676025618524, -0.49508386449451636, -0.36189921251128426, 0.15402661803861908, -0.21882437473307367, 0.1644353370765798, -0.060353317381330054, 0.694836802682859, -0.5110003645790729, 0.22181986083537014, 0.4849503056111942, 0.1539183808861746, 0.2948264968795626, -0.9761569130876785, -0.1013897553711851, -0.30401193973978846, 0.17815676044229228], [0.05604624963911035, 0.2623592472683021, 0.15464935209599734, -0.09083286797178015, -0.8181482356578547, 0.04119642387186935, -0.450840099481573, -0.3690328533081994, -0.04673589019507112, -0.5394666647849666, 0.4385698814887151, 0.27857863152565626, 0.15520450524366505, -0.1494611677637083, 0.14461731263200436, -0.40351410664306, -0.06369477676764967, 0.05706278640695639, 0.6172185948680867, -0.0609795176590961, -0.06513499076691927, -0.46190323747082807, -0.2987531020180118, 0.9290053787573439, 0.19525534990591617, 0.25532324083555535, 0.1710538351526166, 0.29510558867419123, -0.651127967132579, 0.54523435259922, -0.0552984636494535, 0.05135778208249164, 0.09916596386223513, -0.21750534290093074, 0.24918297291816668, -0.0820453427837787, 0.1205723905753414, 0.17698587304144683, -0.046145126960453316, 0.05261634357727474, 0.11774818070261624, -1.5677346412345337, 0.08373055510927159, -0.02419216317094953, 0.4584546825463691, -0.2790837113466364, 0.06147592174109992, 0.2428482267059832, -0.3188234262184916, 0.27569633827708234, 1.0585280738266278, 0.13915043411749758, -0.7688904059694166, 0.19265875921370346, 0.13025852531149912, -0.2699881108109385, -0.007598681491016198], [0.1567769936299828, 0.39107846668702934, 0.5466311119607911, -0.14170579684661597, -0.1333507889935658, -0.058701636374919784, -0.2467833326897337, -0.2019642960035992, -0.38978658078190426, 0.30823167770223076, 0.28841959152476043, 0.024351047747080634, -0.6481051646156802, 0.6350279371284786, -0.6317014230082371, 0.5465517185737752, -0.09934931422104544, 0.03941949055398923, 0.2636524183139204, -0.15469794041059762, 0.2775744721930331, -0.5301687951396645, 0.05719069243733153, -0.1913978741957411, 0.5651661078953585, -0.4012188095404772, -0.01640848397743507, 0.3215820341843319, 0.4546310660906207, 0.17053603594689784, 0.014069565098139251, 0.5224335815073953, 0.3603262401978077, 0.21059732876212656, 0.12022513598471582, 0.4271892303178325, 0.3172202242342616, 0.2680416916871012, 0.4578017557464805, -0.39588795662157694, 0.17025592429100203, -0.6966754708175292, -0.6118483366799254, -0.09317308819815245, 0.5268556984345204, -0.2219472084959091, -0.1927121507661732, -0.5961870949321513, 0.03287315952579057, 0.1255583085121424, -1.437816738799634, 0.32218079607597605, -0.06555128100668123, -0.28538279496510455, -0.14549631632904375, -0.1710081232086416, -0.16341670197152883], [-0.13095909138007686, -0.37336094021098043, -0.15543210598485638,